%YAML:1.0
---
opencv_ml_svm:
   format: 3
   svmType: C_SVC
   kernel:
      type: RBF
      gamma: 5.3830000000000000e+00
   C: 2.6699999999999999e+00
   term_criteria: { epsilon:1.1920928955078125e-07, iterations:1000 }
   var_count: 1296
   class_count: 2
   class_labels: !!opencv-matrix
      rows: 2
      cols: 1
      dt: i
      data: [ 0, 1 ]
   sv_total: 35
   support_vectors:
      - [ 0., 0., 0., 1.31695848e-02, 8.01122561e-02, 3.69291715e-02,
          4.00662944e-02, 0., 0., 0., 0., 2.30196118e-03, 3.81141831e-03,
          7.31491148e-02, 6.33741319e-02, 1.94602758e-02, 2.38733343e-03,
          0., 0., 0., 0., 0., 1.41412541e-01, 1.17615759e-01,
          1.12788770e-02, 0., 0., 7.99136236e-02, 0., 1.18409060e-02,
          2.91130058e-02, 1.81778699e-01, 1.40197203e-01, 1.61044925e-01,
          5.87056950e-03, 0., 2.27969694e+00, 2.81657111e-02,
          2.00549215e-02, 0., 2.84456730e-01, 3.53068113e-02,
          9.69804823e-03, 3.07433568e-02, 2.93302815e-02, 4.77084970e+00,
          0., 1.05921552e-02, 2.10395884e-02, 6.87425286e-02,
          5.00656143e-02, 3.75960767e-02, 2.66416720e-03, 5.16057573e-03,
          5.63216400e+00, 0., 1.14862695e-02, 2.35936083e-02,
          4.65537980e-03, 0., 8.45156331e-03, 0., 3.98812676e-03,
          4.06024790e+00, 0., 2.96274573e-02, 0., 0., 0., 4.47049737e-04,
          0., 2.07600403e+00, 9.05305445e-01, 0., 6.41960502e-02, 0., 0.,
          0., 0., 3.81583989e-01, 1.32603943e+00, 6.91447556e-02,
          1.68249696e-01, 3.58995020e-01, 1.36664346e-01, 3.40535969e-01,
          4.06143591e-02, 3.09159253e-02, 5.90965338e-02, 2.81376205e-02,
          1.80303361e-02, 9.69088972e-02, 6.23958092e-03, 7.73659023e-03,
          4.14908051e-01, 3.78480196e-01, 2.07765892e-01, 2.56497487e-02,
          7.89395254e-03, 2.91356444e-01, 5.28185666e-02, 1.06353015e-02,
          2.81462329e-03, 6.26652222e-03, 0., 2.47742794e-02,
          6.92478660e-03, 5.22732968e-03, 2.74902582e-03, 1.26448972e-03,
          6.71309233e-03, 2.45679170e-02, 4.81855720e-02, 9.68696102e-02,
          3.87320556e-02, 3.78722604e-03, 0., 0., 0., 0., 8.52169760e-04,
          2.47033119e-01, 2.50662476e-01, 5.05245440e-02, 2.24987864e-02,
          4.69197407e-02, 0., 0., 0., 0., 3.05815011e-01, 6.43203020e-01,
          0., 0., 1.76516712e-01, 1.01019591e-01, 2.28616548e+00,
          5.41786790e-01, 5.10666072e-02, 1.95849136e-01, 1.93868577e-01,
          0., 0., 0., 3.01470804e+00, 3.71066070e+00, 0., 1.72633827e-02,
          2.28030682e-02, 1.18520223e-01, 0., 0., 0., 3.35607195e+00, 0.,
          0., 5.35018742e-01, 8.27883780e-01, 2.85944283e-01, 0., 0., 0.,
          3.07861066e+00, 0., 0., 1.06207855e-01, 1.49004555e+00, 0., 0.,
          0., 0., 9.29128230e-01, 0., 0., 0., 8.39455307e-01,
          2.38032803e-01, 3.62057120e-01, 1.02185130e+00, 9.13523674e-01,
          0., 0., 0., 0., 0., 0., 5.05150966e-02, 4.99725485e+00, 0.,
          4.57987785e-02, 1.02359159e-02, 1.34855174e-02, 1.34596135e-02,
          1.35512069e-01, 3.99866812e-02, 5.93470782e-02, 2.44346425e-01,
          1.22707568e-01, 5.29214330e-02, 4.40229326e-02, 7.37209199e-03,
          8.86223651e-03, 1.72271393e-02, 5.03080823e-02, 5.43443449e-02,
          6.34570643e-02, 1.63791925e-01, 0., 3.88770946e-03,
          1.25487428e-03, 1.16411373e-02, 1.07877575e-01, 5.68504594e-02,
          7.75502715e-03, 0., 0., 1.63569644e-01, 6.57216847e-01,
          3.01391315e-02, 2.87552755e-02, 2.78847981e-02, 8.20466504e-02,
          2.67241690e-02, 1.31316911e-02, 1.28714517e-02, 5.54141903e+00,
          2.85088331e-01, 0., 0., 0., 0., 0., 7.64877861e-03,
          8.32871050e-02, 3.40097809e+00, 0., 0., 0., 0., 0., 0., 0.,
          3.78120565e+00, 5.54787016e+00, 1.79825592e+00, 0., 0., 0., 0.,
          0., 0., 3.38810831e-02, 1.18218102e-01, 8.18359435e-01,
          3.99525255e-01, 2.33818814e-02, 2.06439327e-02, 8.12956572e-01,
          4.26479399e-01, 2.82362759e-01, 9.67240185e-02, 8.86436924e-02,
          4.27102372e-02, 2.41885837e-02, 1.14974558e-01, 1.38587046e+00,
          6.18074715e-01, 9.05015171e-02, 2.93383956e-01, 3.84759635e-01,
          3.43583636e-02, 6.98139906e-01, 5.23488879e-01, 7.76111722e-01,
          8.08658302e-01, 0., 0., 0., 0., 1.09728575e-02, 7.90548846e-02,
          8.26873854e-02, 2.99301386e-01, 1.94030210e-01, 5.29148616e-02,
          3.01390905e-02, 4.21567867e-03, 0., 0., 0., 0., 9.60268360e-03,
          2.35113967e-03, 3.00478004e-02, 1.16052493e-01, 3.26295686e+00,
          5.10258526e-02, 0., 4.65205777e-03, 3.71181332e-02,
          7.63263321e-03, 1.61019582e-02, 4.30946564e-03, 4.27263826e-02,
          3.07441831e+00, 3.66235035e-03, 5.07378625e-03, 2.42302883e-02,
          2.30190486e-01, 4.99320254e-02, 4.26221266e-03, 5.60021680e-03,
          3.12980637e-02, 1.84214532e-01, 2.01603565e-02, 9.95293260e-03,
          0., 4.60392237e-03, 6.51092967e-03, 8.24707747e-03,
          1.10308845e-02, 3.80830690e-02, 1.09201163e-01, 2.78550740e-02,
          2.23529339e-03, 1.81039906e+00, 2.26363158e+00, 0.,
          8.07842612e-03, 0., 0., 0., 0., 2.82503635e-01, 2.22378492e+00,
          6.36954486e-01, 6.36948407e-01, 1.10878038e+00, 2.09693089e-01,
          0., 1.78145373e-03, 0., 2.02041894e-01, 1.08277630e-02,
          9.55734309e-03, 0., 2.41106248e+00, 2.64077246e-01,
          6.68367296e-02, 6.29896894e-02, 2.43067592e-01, 1.72609732e-01,
          1.12012587e-02, 5.28806299e-02, 5.34566581e-01, 1.30295825e+00,
          4.52213258e-01, 5.26847765e-02, 3.89186889e-02, 6.76992536e-02,
          1.28259622e-02, 8.64796899e-03, 0., 2.12063998e-01,
          7.41952538e-01, 2.18957394e-01, 1.59409359e-01, 1.18554279e-01,
          1.29709601e-01, 5.85727870e-01, 1.07460748e-02, 2.33579352e-02,
          2.75658369e-01, 2.67006099e-01, 0., 0., 0., 1.04933178e+00,
          9.47818458e-01, 5.04255772e-01, 3.42197791e-02, 4.34361547e-02,
          1.01455562e-01, 3.82954702e-02, 3.22717265e-03, 6.17813831e-03,
          1.10482452e-02, 4.16912064e-02, 5.16153164e-02, 7.25507736e-04,
          6.29249448e-03, 3.67791392e-02, 2.57510059e-02, 9.03279260e-02,
          3.44898887e-02, 8.78787227e-03, 6.18692935e-02, 1.92188293e-01,
          1.75293535e-02, 1.49587058e-02, 0., 0., 2.82311644e-02,
          3.01983356e-01, 1.85011953e-01, 0., 0., 0., 0., 0., 0.,
          2.89690550e-02, 5.22886276e+00, 0., 3.35004274e-03, 0.,
          3.22354436e-02, 2.44771436e-01, 7.09191561e-02, 2.20916979e-02,
          6.57344535e-02, 6.50735080e-01, 4.56987042e-03, 8.94129276e-04,
          0., 8.83357786e-03, 1.27119925e-02, 5.59621900e-02,
          6.75747171e-02, 1.11852042e-01, 1.25489361e-03, 0.,
          4.17717361e+00, 7.82342076e-01, 2.93204278e-01, 0., 0., 0., 0.,
          0., 5.21839321e-01, 3.75683755e-01, 2.58623846e-02,
          2.35227615e-01, 3.40858042e-01, 4.84016359e-01, 3.77057791e-01,
          1.77461077e-02, 6.42876141e-03, 1.13208020e+00, 1.81451917e+00,
          2.47515708e-01, 9.31062326e-02, 1.80936888e-01, 2.37892702e-01,
          1.12959474e-01, 2.36625280e-02, 1.17602712e-02, 2.39780918e-02,
          1.68017220e+00, 1.39198005e-01, 8.37826282e-02, 1.32318556e-01,
          8.63041580e-02, 0., 0., 0., 0., 1.59815818e-01, 0., 0.,
          6.08903542e-02, 1.59185007e-01, 7.35603506e-03, 3.92156839e-03,
          3.51541601e-02, 1.24973023e+00, 5.22660255e-01, 4.12654787e-01,
          4.45656240e-01, 2.47133180e-01, 2.85494514e-02, 0., 0., 0., 0.,
          4.22279052e-02, 1.56914905e-01, 1.02692857e-01, 7.22856969e-02,
          2.96896603e-02, 0., 8.94069672e-04, 0., 1.06114019e-02,
          4.15413976e-02, 9.24205408e-02, 1.53578684e-01, 1.51831862e-02,
          4.39400738e-03, 6.32202718e-04, 4.47034836e-04, 0.,
          1.68014015e-03, 2.45025624e-02, 2.22147033e-02, 3.58937755e-02,
          7.97358528e-02, 5.46699651e-02, 2.52264887e-02, 1.56999081e-02,
          3.04593425e-02, 2.34791264e-02, 0., 0., 0., 0., 0.,
          1.05634205e-01, 7.62839079e-01, 2.33342600e+00, 0., 0., 0.,
          8.83357786e-03, 1.37308100e-02, 0., 6.24630228e-03,
          2.26586033e-02, 3.12419224e+00, 0., 0., 0., 5.35805896e-03,
          1.00394048e-01, 7.14881048e-02, 6.84891716e-02, 3.63766477e-02,
          0., 0., 8.38851869e-01, 3.19076002e-01, 2.28334054e-01,
          6.70574307e-01, 1.33279681e+00, 3.23890030e-01, 7.84429312e-02,
          1.33786261e-01, 2.83388674e-01, 8.21491182e-02, 3.87464538e-02,
          8.30221735e-03, 1.09925540e-02, 4.27519470e-01, 7.17446446e-01,
          4.68585491e-01, 4.11233604e-01, 3.77942860e-01, 3.88340205e-01,
          1.64167151e-01, 8.47259089e-02, 1.00903130e+00, 2.81270385e-01,
          0., 0., 0., 0., 2.52922326e-01, 1.07235620e-02, 2.21007131e-02,
          7.89184272e-02, 1.13164830e+00, 0., 0., 0., 3.54947126e-03, 0.,
          0., 0., 5.38166054e-02, 9.28020775e-01, 3.69664058e-02,
          1.66058876e-02, 2.01681182e-02, 2.82278329e-01, 3.37363362e-01,
          3.36788595e-02, 1.04314715e-01, 2.79083192e-01, 2.73515433e-02,
          0., 0., 0., 2.23643743e-02, 1.33008316e-01, 1.16741233e-01,
          4.49490733e-02, 1.41443294e-02, 0., 0., 0., 0., 7.45471939e-02,
          2.19822712e-02, 2.03092601e-02, 7.89405033e-03, 9.22903046e-03,
          0., 0., 2.67227925e-02, 3.45712714e-02, 5.29288203e-02, 0., 0.,
          0., 1.80061292e-02, 1.03825502e-01, 2.81909376e-01,
          1.14231996e-01, 0., 0., 0., 0., 0., 0., 0., 3.32221299e-01,
          1.35995722e+00, 1.38811424e-01, 0., 0., 0., 0., 0., 0., 0.,
          2.65001607e+00, 1.31430042e+00, 0., 5.26677410e-04,
          1.11567341e-02, 1.68357432e-01, 2.99006999e-02, 2.40881667e-02,
          3.03832609e-02, 3.41944732e-02, 3.61392461e-02, 5.87050850e-03,
          0., 0., 8.51788580e-01, 1.00431347e+00, 3.10513926e+00, 0., 0.,
          0., 0., 7.84423172e-01, 1.38038659e+00, 6.26990259e-01,
          5.93858324e-02, 3.21394116e-01, 0., 0., 0., 9.70054641e-02,
          1.10583329e+00, 4.60376330e-02, 3.12690735e-02, 6.44494370e-02,
          0., 0., 0., 3.55394930e-02, 5.17844498e-01, 1.20748222e+00, 0.,
          4.14462155e-03, 1.05636433e-01, 2.16231104e-02, 0., 0., 0., 0.,
          8.18153262e-01, 3.48159038e-02, 0., 3.69781926e-02,
          9.18298513e-02, 0., 0., 0., 4.00445968e-01, 3.07646900e-01,
          2.20738083e-01, 3.07041645e-01, 8.16516131e-02, 1.49044991e-01,
          7.68470168e-02, 4.27229404e-02, 1.70619637e-02, 4.97192666e-02,
          2.78820321e-02, 3.29605341e-02, 1.25495996e-02, 3.62030774e-01,
          2.58453250e-01, 4.24292218e-03, 1.08671505e-02, 2.44414713e-02,
          7.76503906e-02, 2.51364708e-03, 6.21182285e-03, 0.,
          2.46639531e-02, 4.47034836e-04, 1.45758083e-02, 8.92070159e-02,
          1.10995606e-01, 1.83628276e-02, 0., 0., 0., 0., 0.,
          1.17019769e-02, 2.49786898e-01, 2.94146001e-01, 3.60062979e-02,
          0., 0., 0., 0., 0., 0., 5.26440255e-02, 6.70842648e-01,
          2.89241225e-01, 0., 0., 0., 0., 0., 0., 0., 4.29613781e+00,
          2.90849451e-02, 0., 0., 3.77947907e-03, 2.42782347e-02,
          1.16690956e-01, 5.55868931e-02, 1.73574746e-01, 6.93579376e-01,
          4.77812806e-04, 8.64158198e-02, 8.40713643e-03, 1.84659207e+00,
          8.34289432e-01, 1.63450688e-02, 0., 0., 8.96204188e-02, 0., 0.,
          0., 1.16998684e+00, 2.50732589e+00, 1.80717480e+00,
          5.89197315e-03, 4.97921975e-03, 0., 0., 0., 0., 0., 0.,
          3.35164881e+00, 1.26551032e-01, 3.65060717e-02, 0., 0., 0., 0.,
          0., 0., 3.18389130e+00, 0., 0., 0., 0., 0., 0., 3.04444302e-02,
          1.81496531e-01, 2.78618431e+00, 2.30367463e-02, 0., 0., 0., 0.,
          0., 0., 0., 9.86393690e-01, 2.07266855e+00, 4.36615534e-02,
          1.56926215e-02, 9.35708731e-03, 0., 3.27736512e-03, 0.,
          2.17570710e+00, 9.55044448e-01, 0., 0., 5.80236968e-03, 0.,
          3.92156839e-03, 0., 0., 1.60986507e+00, 7.40895867e-01,
          2.37286482e-02, 0., 1.47344638e-02, 0., 2.76302896e-03,
          8.52174649e-04, 9.83298570e-03, 2.07818136e-01, 6.12048209e-01,
          1.49014825e-02, 2.55123246e-02, 3.96070629e-02, 4.53090668e-02,
          5.13657629e-02, 6.89752027e-03, 3.42877097e-02, 3.42114903e-02,
          0., 0., 0., 5.21256179e-02, 3.78026098e-01, 3.92552614e-02, 0.,
          6.96337549e-03, 0., 0., 0., 0., 3.52619028e+00, 1.97309256e-01,
          0., 0., 0., 0., 1.31483644e-01, 4.71629389e-02, 9.26997066e-01,
          2.17149019e+00, 0., 2.29988217e-01, 0., 0., 2.28388101e-01,
          4.16412167e-02, 1.38586815e-02, 2.39181332e-02, 1.47054875e+00,
          1.36635331e-02, 6.73702955e-02, 4.95421980e-03, 8.74026492e-03,
          1.99169323e-01, 1.84085679e+00, 0., 0., 1.08940080e-02,
          3.57313082e-02, 2.13332474e-03, 0., 0., 0., 3.23807383e+00,
          3.06586139e-02, 1.33314598e-02, 6.92082383e-03, 1.70942359e-02,
          0., 0., 0., 0., 3.82041359e+00, 4.80567664e-02, 0., 0., 0., 0.,
          0., 7.08101153e-01, 1.00263739e+00, 3.02401614e+00,
          1.64954774e-02, 0., 0., 0., 5.65584004e-01, 1.03978801e+00,
          1.81669593e+00, 1.93300828e-01, 1.64332300e-01, 0., 0., 0.,
          5.54726481e-01, 1.18232481e-02, 0., 0., 3.88770946e-03,
          1.88468575e-01, 1.08967395e-02, 0., 1.36683837e-01,
          3.23984218e+00, 6.33227110e-01, 1.93413228e-01, 2.18251139e-01,
          9.56132829e-01, 3.07448477e-01, 0., 0., 0., 7.82727480e-01,
          6.33595645e-01, 8.96283507e-01, 3.21239054e-01, 4.54431564e-01,
          2.17722148e-01, 0., 0., 0., 0., 6.22503050e-02, 1.41039386e-01,
          2.33280286e-01, 3.99645604e-02, 4.14456520e-03, 2.15590782e-02,
          4.30480577e-02, 4.36631963e-02, 3.25163193e-02, 0., 0.,
          8.81483182e-02, 2.32184082e-02, 1.24012958e-02, 1.44247428e-01,
          1.68338549e+00, 4.91313547e-01, 0., 2.49960572e-02, 0., 0., 0.,
          7.68601894e-04, 0., 3.68702841e+00, 8.53437781e-01, 0.,
          1.37913734e-01, 0., 0., 6.54679351e-03, 4.36861813e-03,
          6.00030413e-03, 9.33327496e-01, 1.93577099e+00, 2.34251171e-02,
          2.88137585e-01, 2.79383287e-02, 2.59447359e-02, 8.79057571e-02,
          6.34062588e-02, 2.03510784e-02, 3.92155349e-03, 0.,
          4.26500738e-02, 0., 0., 0., 0., 1.64874364e-02, 9.07391533e-02,
          5.56997694e-02, 2.98838735e-01, 1.57514140e-01, 6.15913644e-02,
          0., 0., 0., 0., 0., 3.92157584e-03, 3.27824801e-02,
          3.62791896e-01, 2.10095644e-01, 9.35371220e-02, 8.35158229e-01,
          1.95492525e-02, 7.61735020e-03, 0., 2.11083703e-02,
          5.25523871e-02, 1.47831604e-01, 0., 0., 9.00367320e-01,
          5.41047907e+00, 5.68812713e-02, 3.00458670e-02, 0., 0., 0.,
          2.69964002e-02, 8.87803268e-03, 2.21610833e-02, 2.75221491e+00,
          8.06319341e-02, 0., 3.22715566e-02, 7.90096149e-02,
          3.86550009e-01, 1.13783801e+00, 1.95034053e-02, 1.56705696e-02,
          4.06855702e-01, 1.89725444e-01, 0., 0., 0., 9.43779409e-01,
          9.64582741e-01, 1.77930463e-02, 0., 1.41877010e-01,
          6.77570254e-02, 8.45022500e-02, 0., 2.33715195e-02,
          1.04946695e-01, 4.61084023e-02, 7.12773902e-03, 3.94696556e-03,
          5.56978323e-02, 4.12423797e-02, 2.71411270e-01, 1.26664490e-01,
          1.70422941e-01, 2.95925975e-01, 0., 0., 0., 0., 0.,
          1.92218673e+00, 2.08864212e+00, 2.02991813e-02, 0.,
          4.72320504e-02, 0., 5.77646494e-03, 0., 2.14557443e-02,
          2.93887854e-02, 3.31319189e+00, 1.07271560e-02, 9.35955159e-03,
          6.54680561e-03, 0., 3.92156839e-03, 0., 1.44227415e-01,
          1.47437053e-02, 2.81274843e+00, 0., 0., 1.99951674e-03,
          2.94466666e-03, 1.43511435e-02, 6.53330833e-02, 3.23255360e-02,
          2.04141345e-02, 2.98865070e-03, 0., 0., 7.77209224e-03,
          3.79340607e-03, 4.13331389e-03, 8.45304970e-03, 1.08706206e-02,
          6.80573285e-03, 2.21474804e-02, 4.11059447e-02, 2.54899003e-02,
          7.27280378e-02, 9.43364482e-03, 0., 0., 0., 0., 0.,
          1.86120924e-02, 1.18974224e-01, 1.06642805e-01, 6.10424615e-02,
          2.23527849e-03, 0., 2.89076148e-03, 0., 0., 5.61026670e-02,
          2.38149930e-02, 6.38840050e-02, 6.37809746e-03, 1.79207131e-01,
          8.38927627e-01, 1.29538737e-02, 1.27245523e-02, 3.36361192e-02,
          1.80532768e-01, 9.38209295e-02, 0., 0., 0., 5.67185497e+00, 0.,
          0., 0., 0., 0., 0., 0., 0., 1.05578446e+00, 2.81909275e+00, 0.,
          0., 0., 0., 0., 0., 0., 5.74064031e-02, 4.53345680e+00,
          1.61898896e-01, 0., 0., 0., 0., 0., 0., 0., 4.05445290e+00,
          1.63037813e+00, 0., 0., 0., 0., 0., 0., 0., 6.51815310e-02,
          4.50675201e+00, 0., 0., 0., 2.58951396e-01, 1.14002317e-01,
          7.48062134e-02, 6.92322291e-03, 1.35529339e-02, 1.67043254e-01,
          3.27656180e-01, 1.48590719e-02, 2.12544855e-02, 0., 0.,
          7.39607960e-03, 4.31063510e-02, 1.39323190e-01, 1.29382014e-01,
          1.79855120e+00, 0., 0., 6.75330358e-03, 6.18310645e-02,
          9.46430117e-02, 1.14515156e-01, 2.24509537e-02, 1.25489361e-03,
          0., 0., 0., 9.80746448e-02, 2.31679063e-02, 2.20207702e-02,
          9.07946378e-03, 1.71343889e-02, 0., 4.60392237e-03, 0.,
          1.18163275e-02, 1.45324141e-01, 8.65623131e-02, 3.99222709e-02,
          9.04351659e-03, 0., 0., 0., 0., 1.51163479e-02, 1.99870437e-01,
          0., 6.47841394e-03, 0., 0., 0., 7.39608705e-03, 6.89760502e-03,
          9.89498645e-02, 3.22141469e-01, 0., 2.00117528e-02, 0., 0., 0.,
          1.53980255e-02, 2.98963170e-02, 9.62790847e-02, 1.42272830e-01,
          1.69069320e-02, 1.08370095e-01, 6.96890295e-01, 1.03098854e-01,
          1.21956868e-02, 4.60175388e-02, 5.40664606e-02, 1.27284557e-01,
          2.34787464e-02, 0., 3.23924422e-03, 1.79876775e-01,
          2.78751636e+00, 9.87558905e-03, 2.12849490e-02, 4.95421048e-03,
          8.23005736e-02, 1.68801516e-01, 3.62134799e-02, 2.42548883e-02,
          4.20343876e-02, 2.47027063e+00, 0., 0., 0., 0., 9.37889740e-02,
          1.21343546e-02, 2.45463848e-02, 1.86405033e-02, 1.42943335e+00,
          2.81538591e-02, 6.22352958e-03, 4.08931915e-03, 4.55330238e-02,
          3.16133089e-02, 4.38365042e-02, 1.40663952e-01, 5.13754450e-02,
          1.61604151e-01, 1.57597885e-02, 0., 2.94025196e-03,
          3.06028500e-03, 9.20323376e-03, 7.94846471e-03, 1.73438471e-02,
          1.04767121e-02, 1.17298216e-01, 9.75394323e-02, 6.45927340e-02,
          2.84314668e-03, 1.40766827e-02 ]
      - [ 1.57210305e-02, 1.04854116e-02, 1.50953112e-02, 1.71096977e-02,
          2.31654532e-02, 1.00149894e-02, 6.90588355e-03, 0.,
          4.93801385e-03, 2.34496873e-03, 0., 9.41957440e-03,
          6.16892381e-03, 3.71055454e-02, 1.53216794e-01, 5.63858971e-02,
          1.90802256e-03, 0., 1.21973790e-01, 5.76777086e-02,
          4.46428498e-03, 1.05650285e-02, 3.61637399e-02, 7.72814229e-02,
          3.94380689e-02, 7.37931859e-03, 0., 5.65307677e-01,
          2.34497013e-03, 8.31929035e-03, 0., 0., 1.06893266e-02,
          4.51966859e-02, 1.48441619e-03, 3.17118555e-01, 1.12145340e+00,
          1.92533638e-02, 1.44264689e-02, 0., 0., 0., 5.77647239e-03,
          1.58597659e-02, 4.57207672e-02, 1.65397930e+00, 0., 0., 0., 0.,
          1.37884496e-03, 1.29372552e-02, 2.04567686e-02, 1.38519064e-01,
          2.52440476e+00, 1.72881018e-02, 8.73725116e-03, 0., 0., 0.,
          2.74901837e-03, 2.89076869e-03, 1.30099291e-02, 2.87886405e+00,
          0., 8.73726606e-03, 0., 0., 0., 0., 0., 0., 1.82171881e+00, 0.,
          3.32705826e-02, 0., 0., 0., 0., 0., 1.01697385e+00,
          2.05616187e-02, 0., 0., 0., 0., 0., 1.55764669e-02, 0.,
          2.13920021e+00, 9.58819836e-02, 4.28356417e-02, 4.27936949e-02,
          0., 0., 0., 0., 2.07839847e-01, 4.05286551e-01, 0.,
          2.13455912e-02, 2.97878265e-01, 3.13453116e-02, 1.01882219e-02,
          0., 0., 0., 0., 2.06282347e-01, 1.26448972e-03, 0., 0., 0.,
          1.37885124e-03, 0., 4.84578200e-02, 1.12559950e+00,
          6.66370690e-02, 1.18508309e-01, 0., 0., 2.73091369e-03,
          6.09623007e-02, 2.98491158e-02, 3.46084312e-02, 4.60202157e-01,
          7.58099556e-01, 2.17606854e+00, 0., 0., 0., 0., 0., 0.,
          5.93827385e-03, 3.02734876e+00, 1.56263202e-01, 0., 0., 0., 0.,
          0., 0., 3.46869469e-01, 2.29479909e+00, 3.48985307e-02, 0., 0.,
          0., 0., 0., 0., 5.17189801e-01, 2.57036376e+00, 9.57103968e-02,
          1.18791707e-01, 1.12051934e-01, 0., 0., 0., 0., 0.,
          2.78427792e+00, 0., 6.03087619e-02, 2.64114320e-01,
          1.79598540e-01, 0., 0., 0., 0., 2.83110285e+00, 0.,
          3.04017477e-02, 2.05165416e-01, 2.43418247e-01, 0., 0., 0., 0.,
          4.43630368e-01, 8.05708859e-03, 0., 3.56242731e-02,
          3.65140475e-02, 1.98499262e-02, 1.46680385e-01, 1.13228671e-01,
          2.28014350e+00, 0., 0., 0., 0., 0., 0., 2.57405974e-02,
          3.26447874e-01, 2.71978855e+00, 0., 0., 0., 0., 0., 0., 0.,
          3.22703791e+00, 2.22920969e-01, 0., 2.73092045e-03,
          7.32587203e-02, 8.61556679e-02, 6.10300675e-02, 1.78892910e-02,
          2.21684910e-02, 5.87442257e-02, 8.16679001e-03, 2.16190264e-01,
          1.19722664e-01, 1.31821752e-01, 0., 1.37725472e-02, 0., 0.,
          4.72092908e-03, 1.00915909e+00, 1.64313245e+00, 9.20405462e-02,
          0., 0., 0., 0., 0., 0., 1.03134871e+00, 1.22692788e+00,
          1.21818972e+00, 2.18018554e-02, 0., 6.51729479e-03,
          3.68180163e-02, 3.67848612e-02, 1.69300791e-02, 1.34418579e-02,
          1.42544866e-01, 4.06920388e-02, 1.73043720e-02, 4.59779985e-02,
          8.00794721e-01, 3.15574348e-01, 0., 0., 5.78792691e-02,
          2.01977193e-02, 0., 1.85565334e-02, 3.15594487e-02,
          6.17833674e-01, 1.13293082e-01, 2.86842212e-02, 5.82265332e-02,
          1.96528379e-02, 5.77649474e-03, 7.21472874e-02, 7.52316043e-02,
          5.39958358e-01, 1.13022506e-01, 1.62803940e-03, 0., 0., 0.,
          9.71509703e-03, 0., 0., 1.22899815e-01, 9.60694313e-01,
          4.24285606e-03, 1.66732110e-02, 2.33084206e-02, 1.04824221e-02,
          1.34819765e-02, 2.98939925e-02, 1.87631529e-02, 8.91755044e-01,
          6.84826732e-01, 0., 0., 0., 6.43082010e-03, 0., 0.,
          8.37141462e-03, 2.91678131e-01, 9.97929096e-01, 1.91467047e-01,
          5.16827628e-02, 0., 0., 0., 1.47455873e-03, 1.34890843e-02,
          1.67969123e-01, 2.92581916e-01, 1.15822017e-01, 2.18630046e-01,
          5.64922243e-02, 2.48824265e-02, 0., 0., 0., 0., 0., 0.,
          1.44273567e+00, 2.16381669e+00, 0., 0., 3.43345385e-03,
          5.77646494e-03, 2.38977484e-02, 3.77502479e-02, 1.80256739e-02,
          2.43229449e-01, 6.20613515e-01, 0., 3.45593512e-01,
          7.88919389e-01, 1.41528800e-01, 0., 0., 0., 0., 0., 0.,
          4.29556340e-01, 4.54433829e-01, 6.65228218e-02, 4.27686051e-02,
          8.37938190e-02, 2.81791743e-02, 9.25099850e-03, 1.00478800e-02,
          1.69256572e-02, 1.15488492e-01, 0., 2.99436296e-03,
          1.17706712e-02, 2.67359376e-01, 7.13833034e-01, 2.00850099e-01,
          4.69267145e-02, 9.28880181e-03, 8.46887473e-03, 8.62364620e-02,
          3.86026688e-02, 4.31896038e-02, 4.63572778e-02, 2.42197439e-01,
          2.31888041e-01, 3.24580781e-02, 6.29194081e-03, 1.62538849e-02,
          3.65598232e-01, 1.08068198e-01, 7.52690295e-03, 0., 0., 0., 0.,
          0., 2.30823457e-02, 1.38546556e-01, 6.24382459e-02,
          1.42378122e-01, 4.29270752e-02, 7.05743162e-03, 2.98862928e-03,
          0., 2.34496617e-03, 3.98683771e-02, 2.50234455e-02,
          2.36181859e-02, 3.42039354e-02, 1.51021881e-02, 1.16977226e-02,
          5.54117560e-03, 5.01330420e-02, 4.50143628e-02, 1.18897535e-01,
          2.39517584e-01, 1.73775330e-02, 2.81463191e-03, 0., 0., 0., 0.,
          0., 1.20075524e-01, 5.58148772e-02, 3.31647843e-02,
          1.62520111e-01, 4.36863303e-03, 0., 0., 0., 9.89302527e-03, 0.,
          0., 6.85609877e-02, 9.04957354e-02, 6.95129186e-02,
          4.38240349e-01, 6.42830878e-02, 4.54727653e-03, 0., 0., 0., 0.,
          0., 0., 1.47657737e-01, 2.21993399e+00, 5.21454141e-02, 0.,
          3.23921442e-03, 0., 0., 0., 0., 0., 1.13035762e+00,
          3.25331718e-01, 0., 0., 7.45331571e-02, 5.10698378e-01,
          5.60879946e-01, 7.32040524e-01, 0., 0., 0., 0., 3.40936482e-02,
          1.54205132e-02, 0., 1.16946399e-02, 1.29733562e+00,
          1.37383044e-01, 1.78408965e-01, 7.77843446e-02, 5.71719976e-03,
          0., 8.33575428e-03, 0., 1.95496306e-02, 4.62422073e-01,
          1.86016604e-01, 1.78520784e-01, 1.56846177e-02, 1.00838505e-02,
          3.14938277e-02, 8.28382373e-02, 2.70842109e-02, 2.12653786e-01,
          1.48998410e-01, 4.64687077e-03, 4.09311056e-03, 2.00349968e-02,
          1.36477603e-02, 1.17254257e-03, 1.36698246e-01, 5.92023991e-02,
          2.04815567e-01, 6.32542148e-02, 1.49055114e-02, 8.94129276e-04,
          5.55445626e-03, 0., 4.47064638e-04, 8.59537628e-03,
          3.05579919e-02, 7.71016702e-02, 4.68630269e-02, 1.01715893e-01,
          2.96077132e-03, 0., 0., 0., 2.03005388e-01, 4.10396397e-01,
          1.78958848e-02, 0., 0., 0., 0., 0., 4.77265060e-01,
          1.34260401e-01, 0., 0., 0., 0., 0., 0., 0., 4.45557982e-01,
          5.91417141e-02, 0., 0., 0., 0., 0., 0., 1.66006222e-01, 0., 0.,
          0., 0., 0., 0., 7.07325637e-01, 2.75165379e-01, 8.70915279e-02,
          0., 0., 0., 0., 0., 3.24104130e-01, 1.42140257e+00, 0., 0., 0.,
          0., 0., 0., 7.39608705e-03, 0., 1.56827462e+00, 4.83401790e-02,
          0., 0., 0., 0., 4.20503467e-01, 5.80298781e-01, 0., 0., 0., 0.,
          3.31164569e-01, 1.31522208e-01, 1.53714120e-01, 2.02705190e-01,
          3.83572787e-01, 0., 0., 0., 0., 2.26522878e-01, 4.06415947e-02,
          8.21757913e-02, 7.33116418e-02, 1.57247141e-01, 3.75711136e-02,
          5.84525149e-03, 2.63539385e-02, 1.24247082e-01, 1.71293333e-01,
          3.05347331e-02, 0., 2.99930155e-01, 6.51835650e-02, 0.,
          1.85001118e-03, 0., 2.66317539e-02, 2.45809145e-02,
          1.24216303e-01, 7.07981512e-02, 4.33933586e-01, 4.38736789e-02,
          0., 0., 0., 0., 0., 1.98073417e-01, 1.36455968e-01,
          6.15499802e-02, 1.67369861e-02, 6.32244861e-04, 0., 0., 0., 0.,
          8.07507753e-01, 9.82809067e-02, 0., 0., 0., 0., 0., 0.,
          2.03116596e-01, 5.26310444e-01, 2.98672110e-01, 0., 0., 0., 0.,
          0., 0., 2.56673485e-01, 1.28042037e-02, 1.09545346e-02,
          8.00448935e-03, 7.84666650e-03, 2.64646322e-01, 6.92643076e-02,
          1.39208823e-01, 2.36152068e-01, 0., 0., 0., 0., 0.,
          7.09040537e-02, 2.18032527e+00, 4.76667359e-02, 0., 0., 0., 0.,
          0., 0., 9.41376984e-01, 8.79602551e-01, 0., 0., 0., 0., 0., 0.,
          2.79216468e-03, 9.80934687e-03, 1.05121076e+00, 0., 0., 0., 0.,
          0., 7.04598665e-01, 1.87922582e-01, 0., 0., 0., 0.,
          2.32817024e-01, 2.10679233e-01, 1.12750864e+00, 6.78658128e-01,
          8.37817863e-02, 0., 0., 0., 0., 1.29723161e-01, 0., 0.,
          4.96956035e-02, 5.57570159e-01, 1.50493905e-01, 2.95663066e-02,
          2.80892998e-02, 1.87696278e-01, 1.58121511e-01, 1.00685246e-02,
          0., 9.99699160e-02, 3.89782757e-01, 2.10369416e-02,
          1.17766168e-02, 2.32760999e-02, 3.97486091e-02, 3.13029960e-02,
          9.82886553e-02, 2.07449272e-02, 9.74876508e-02, 5.03097653e-01,
          1.09004248e-02, 0., 1.88313611e-03, 1.43859722e-02, 0.,
          3.45351286e-02, 1.90822929e-01, 4.61691350e-01, 3.89798671e-01,
          0., 0., 0., 0., 0., 1.34940311e-01, 3.44447225e-01,
          3.85903239e-01, 3.77252162e-01, 0., 0., 0., 0., 0., 0.,
          2.43377984e-01, 6.44485533e-01, 1.63037568e-01, 0., 0., 0., 0.,
          0., 0., 0., 8.57828464e-03, 1.79417789e-01, 1.53664982e+00, 0.,
          0., 0., 0., 0., 0., 0., 0., 1.16393149e+00, 1.37012398e+00, 0.,
          0., 0., 0., 0., 0., 0., 1.24679732e+00, 3.01969320e-01,
          2.51071807e-03, 1.82955922e-03, 9.41962004e-03, 0., 0., 0.,
          1.87453330e-02, 1.38745785e-01, 2.59589344e-01, 1.86960474e-02,
          2.69357394e-02, 2.90195644e-03, 1.02598069e-03, 1.41345030e-02,
          9.70687419e-02, 6.40081912e-02, 2.11351831e-02, 4.37751831e-03,
          0., 0., 0., 0., 8.96816775e-02, 4.28418696e-01, 9.65599597e-01,
          1.63686629e-02, 0., 0., 0., 0., 0., 0., 0., 2.20511127e+00, 0.,
          0., 0., 0., 0., 0., 0., 0., 2.33238864e+00, 0., 0., 0., 0., 0.,
          0., 0., 0., 2.40013528e+00, 0., 0., 0., 0., 0., 0., 0., 0.,
          2.64933348e+00, 0., 0., 0., 0., 0., 2.34299868e-01,
          9.89484429e-01, 1.02704251e+00, 1.08798003e+00, 0., 0., 0., 0.,
          1.74505990e-02, 5.83101392e-01, 2.43541494e-01, 3.31271499e-01,
          1.52295148e-02, 8.69620740e-02, 1.86759785e-01, 7.37245521e-03,
          0., 0., 0., 0., 0., 0., 1.76815331e+00, 2.27381155e-01, 0., 0.,
          0., 0., 0., 0., 0., 1.21910691e+00, 7.24488854e-01, 0., 0.,
          2.17866078e-01, 1.43288020e-02, 0., 0., 0., 3.10213547e-02,
          2.89313138e-01, 2.89512370e-02, 8.87007341e-02, 3.41913164e-01,
          0., 0., 0., 0., 0., 0., 1.02961734e-02, 3.95528436e-01,
          1.57767045e-03, 2.40485300e-03, 3.81543348e-03, 4.43024486e-02,
          8.42041820e-02, 1.19578959e-02, 9.99646960e-04, 2.58402363e-03,
          0., 0., 0., 0., 0., 4.54016076e-03, 6.97424710e-02,
          7.82600865e-02, 5.00592552e-02, 0., 1.22447222e-01,
          2.22865231e-02, 1.08705759e-02, 0., 6.52654618e-02,
          1.86257362e-02, 5.11951046e-03, 7.07209632e-02, 4.16787714e-03,
          1.03566796e-01, 0., 4.47049737e-04, 0., 8.30994695e-02, 0.,
          1.85491145e-03, 2.31855381e-02, 9.07701775e-02, 3.00332278e-01,
          4.72092442e-03, 0., 0., 8.49206895e-02, 1.47214038e-02, 0.,
          2.72879805e-02, 9.95340124e-02, 8.30766737e-01, 1.22876048e+00,
          0., 0., 4.47116941e-02, 0., 1.05970236e-03, 0., 0.,
          1.10793722e+00, 2.96635389e+00, 2.69504078e-02, 0.,
          1.73611119e-02, 5.91695234e-02, 0., 0., 0., 1.03617735e-01,
          2.50408590e-01, 0., 0., 1.33914435e-02, 1.81759536e+00,
          3.87621462e-01, 4.04458642e-02, 4.18082904e-03, 0., 0., 0., 0.,
          0., 2.32219982e+00, 7.71756843e-02, 0., 0., 0., 0., 0., 0.,
          5.02481088e-02, 9.66539741e-01, 0., 0., 0., 0., 2.53597014e-02,
          1.50613278e-01, 3.02571952e-01, 4.26649190e-02, 0., 0., 0., 0.,
          4.81612049e-02, 4.63687675e-03, 5.88742830e-02, 5.48261181e-02,
          3.37524295e-01, 0., 0., 0., 0., 3.24755087e-02, 1.62428841e-02,
          2.58371606e-02, 1.18223028e-02, 2.39886865e-02, 6.32223790e-04,
          2.34508514e-03, 8.29112809e-03, 3.94695438e-03, 1.40387639e-02,
          0., 5.49803674e-03, 1.65130943e-02, 1.63018424e-02,
          3.88770970e-03, 9.90977883e-03, 3.19699198e-02, 1.46345822e-02,
          2.90085133e-02, 2.31419839e-02, 4.46370356e-02, 1.51588377e-02,
          0., 1.26448972e-03, 4.47064638e-04, 5.49167115e-03,
          5.59007982e-03, 9.36811268e-02, 2.94522140e-02, 3.57647240e-03,
          0., 0., 0., 0., 1.34500610e-02, 2.30487660e-02, 1.42750323e-01,
          1.36161372e-01, 5.77438511e-02, 9.34743807e-02, 4.36861813e-03,
          4.43050126e-03, 2.78512388e-03, 0., 1.37885124e-03,
          4.01440635e-02, 1.51744401e+00, 1.76246822e+00, 0., 0., 0., 0.,
          0., 0., 7.82818124e-02, 4.21960205e-01, 3.54246199e-01,
          5.20694293e-02, 1.45163715e-01, 1.88177633e+00, 8.19606707e-02,
          8.17153975e-03, 8.17155186e-03, 0., 0., 0., 0., 7.03641847e-02,
          3.09606171e+00, 0., 0., 0., 0., 0., 0., 0., 1.30507365e-01,
          8.38928342e-01, 3.58770345e-03, 0., 0., 7.34184589e-03, 0.,
          3.78577551e-03, 4.74610040e-03, 4.58040386e-02, 1.81376979e-01,
          4.00766283e-02, 7.38876127e-03, 0., 0., 2.80624870e-02,
          7.40779862e-02, 2.09474951e-01, 4.56804410e-02, 1.26408394e-02,
          2.51070363e-03, 0., 0., 0., 0., 0., 0., 3.03012013e-01,
          1.92992374e-01, 3.99713591e-02, 0., 0., 9.50359330e-02,
          4.80752960e-02, 0., 0., 0., 0., 0., 0., 2.95696668e-02,
          5.26863448e-02, 1.65822566e-03, 0., 0., 0., 0., 0.,
          5.56905828e-02, 6.50449023e-02, 3.28746922e-02, 5.99540621e-02,
          1.29733458e-02, 0., 2.25880742e-03, 0., 0., 2.03214530e-02,
          1.37498630e-02, 4.10984941e-02, 8.92633870e-02, 1.91488378e-02,
          3.25546484e-03, 0., 0., 1.89803541e-03, 9.94939543e-03,
          1.46040814e-02, 6.26408607e-02, 1.01700440e-01, 2.43123509e-02,
          8.35137442e-03, 0., 0., 5.07633053e-02, 8.18692669e-02,
          1.81688312e-02, 0., 9.65930700e-01, 1.91598070e+00,
          6.00956976e-02, 5.61533421e-02, 2.28482008e-01, 0., 0., 0., 0.,
          0., 0., 0., 2.42269170e-02, 1.93430829e+00, 1.52748811e+00, 0.,
          0., 1.85489666e-03, 3.72050749e-03, 0., 1.43916821e-02,
          1.21340141e-01, 4.36344206e-01, 1.03468373e-02, 9.23564937e-03,
          0., 0., 0., 0., 2.93254871e-02, 1.21140257e-01, 5.68618141e-02,
          1.26191461e-02, 0., 0., 1.50879985e-02, 4.71938662e-02,
          4.78409193e-02, 2.34838687e-02, 2.16536429e-02, 1.57109573e-02,
          1.17104370e-02, 0., 2.34496873e-03, 4.26037461e-02,
          8.10522288e-02, 5.81960380e-03, 8.52164929e-04, 0.,
          2.99298987e-02, 5.03547005e-02, 2.29161195e-02, 2.79004034e-03,
          0., 0., 0., 0., 7.52156973e-03, 9.11110267e-02, 1.60759076e-01,
          0., 0., 1.41254961e-02, 1.89672410e-03, 3.23219085e-03, 0.,
          8.57232735e-02, 2.06470545e-02, 2.45830081e-02, 1.70530714e-02,
          1.99951674e-03, 5.91728836e-03, 6.32244861e-04, 1.78033337e-02,
          2.16915980e-02, 1.65215135e-02, 3.60982632e-03, 1.21593848e-02,
          1.73013825e-02, 0., 1.34117901e-03, 0., 4.62128408e-02,
          1.99332684e-02, 5.92942536e-03, 3.49793807e-02, 3.50539908e-02,
          3.31525616e-02, 0., 4.42943797e-02, 4.66883183e-02,
          1.16374768e-01, 4.36157174e-02, 1.49317440e-02, 8.54101125e-03,
          1.61959231e-03, 0., 1.58193782e-02, 5.89262173e-02,
          1.58814669e-01, 2.04521120e-01, 2.50392407e-02, 4.08095168e-03,
          3.87881743e-03, 4.47049737e-04, 0., 1.19697312e-02, 0.,
          1.03877857e-01, 6.25628471e-01, 2.70284891e-01, 4.84568715e-01,
          5.30864537e-01, 3.41215879e-02, 0., 0., 0., 0., 0., 0., 0.,
          3.77208650e-01, 1.10505438e+00, 0., 0., 0., 0., 1.34117156e-03,
          7.46897375e-03, 7.35153109e-02, 7.74600208e-02, 2.85588354e-02,
          0., 0., 8.27096030e-03, 6.57174923e-03, 8.73726606e-03,
          1.12929558e-02, 6.09324388e-02, 2.19711587e-02, 5.08833630e-03,
          0., 0., 2.52581127e-02, 3.49688418e-02, 1.67663723e-01,
          5.84257096e-02, 2.02824883e-02, 7.17107672e-03, 0., 0., 0., 0.,
          0., 8.78526364e-03, 4.76850830e-02, 1.55454054e-02,
          9.83327404e-02, 8.75045285e-02, 0., 0., 2.34511495e-03, 0., 0.,
          0., 8.94129276e-04, 1.75663233e-02, 1.40092343e-01,
          1.62998699e-02, 0. ]
      - [ 1.88823342e-02, 0., 0., 0., 6.22349977e-03, 0., 1.01492131e+00,
          1.31418869e-01, 0., 0., 0., 1.17356732e-01, 6.65410310e-02,
          8.47911984e-02, 5.64871207e-02, 1.98028967e-01, 0., 0.,
          7.72948042e-02, 2.16742814e-01, 4.08008903e-01, 0., 0., 0.,
          1.40667558e-02, 5.23940055e-03, 0., 2.21417117e+00,
          1.76708356e-01, 4.09021974e-03, 0., 0., 0., 2.34508514e-03, 0.,
          0., 4.30992037e-01, 1.34046581e-02, 5.39255142e-02, 0., 0., 0.,
          0., 1.59389660e-01, 1.63442194e+00, 3.99507284e-02,
          2.84052715e-02, 1.92664802e-01, 1.90956369e-02, 0.,
          8.46931618e-03, 2.01667213e+00, 7.72987306e-01, 2.21982837e-01,
          2.54674517e-02, 3.01796030e-02, 3.87640744e-02, 0., 0., 0.,
          5.98157346e-01, 9.67806458e-01, 5.92011631e-01, 0., 0.,
          2.11432036e-02, 1.65824662e-03, 6.58372324e-03, 4.00671810e-02,
          1.43235430e-01, 4.27449569e-02, 2.90776640e-01, 2.74901837e-03,
          0., 1.98315568e-02, 3.26478221e-02, 5.12650274e-02,
          5.12971804e-02, 3.99808660e-02, 2.97720474e-03, 0., 0.,
          4.58439551e-02, 1.65235773e-01, 5.86949382e-03, 1.17255002e-03,
          1.02572795e-02, 1.06862765e-02, 0., 0., 7.55867269e-03,
          4.03080769e-02, 2.47179508e-01, 5.72133344e-03, 0.,
          1.34235853e-03, 4.47049737e-04, 0., 4.90906928e-03, 0., 0.,
          7.00550795e-01, 1.90497693e-02, 1.10823512e-02, 0., 0., 0., 0.,
          5.48352599e-02, 0., 0., 0., 0., 0., 4.15268093e-01,
          1.12483919e+00, 0., 0., 1.01242654e-01, 3.25723946e-01,
          5.06795906e-02, 6.67210370e-02, 5.15321828e-02, 6.84465706e-01,
          0., 0., 5.94251871e-01, 2.40873885e+00, 2.35845298e-01, 0., 0.,
          0., 0., 0., 0., 9.90610659e-01, 1.49851966e+00, 8.60382617e-03,
          2.81975884e-02, 1.18556350e-01, 6.26807287e-02, 1.75377876e-02,
          0., 0., 1.33906007e-01, 5.49734989e-03, 1.56302564e-02,
          3.87852937e-02, 7.05660833e-03, 0., 1.04029467e-02,
          9.81743515e-01, 8.58348906e-01, 5.81563175e-01, 0., 0., 0., 0.,
          0., 0., 3.15690756e-01, 2.63716412e+00, 0., 0., 0., 0., 0., 0.,
          0., 8.99859592e-02, 5.27145195e+00, 0., 0., 0., 0., 0., 0.,
          4.14802283e-02, 1.94759107e+00, 2.82333112e+00, 7.78880576e-03,
          5.44336401e-02, 1.06344551e-01, 4.72413637e-02, 2.99340133e-02,
          6.88902661e-02, 6.90948144e-02, 5.43983877e-01, 1.07596487e-01,
          0., 8.31931308e-02, 2.51016349e-01, 1.57101955e-02,
          1.17255002e-03, 0., 0., 0., 0., 8.94114375e-04, 7.64105245e-02,
          1.26501992e-01, 8.83180276e-03, 7.25492835e-04, 0., 0.,
          6.32223848e-04, 0., 0., 1.04029784e-02, 5.10824382e-01,
          6.21110611e-02, 3.85764688e-02, 0., 0., 0., 0., 1.11511778e-02,
          2.34497176e-03, 3.50314751e-03, 0., 1.17254257e-03, 0.,
          4.01459128e-01, 9.03722346e-01, 8.00858624e-03, 6.80510342e-01,
          1.21008337e+00, 0., 0., 0., 0., 0., 6.46745503e-01,
          1.86596423e-01, 1.37493610e-01, 3.29386616e+00, 7.12919086e-02,
          0., 3.13448012e-02, 3.10657382e-01, 6.49121255e-02, 0.,
          7.63000222e-03, 4.24284488e-03, 1.96905464e-01, 3.22788447e-01,
          8.95046666e-02, 7.94204697e-02, 5.64650953e-01, 1.46788582e-01,
          0., 0., 1.37402102e-01, 1.84202343e-02, 2.88832158e-01,
          5.91477565e-02, 2.07122132e-01, 0., 0., 4.46446463e-02,
          5.38048744e-02, 7.90931135e-02, 1.29755914e-01, 7.18662888e-02,
          1.81981549e-01, 3.06955516e-01, 0., 0., 0., 2.26764292e-01,
          1.15938805e-01, 4.86469939e-02, 8.67436528e-02, 0., 0., 0., 0.,
          6.77838624e-02, 1.75547838e+00, 0., 0., 0., 0., 0., 0., 0.,
          3.17929339e+00, 1.66196060e+00, 0., 0., 0., 0., 0., 0., 0.,
          4.45520210e+00, 1.20514500e+00, 3.95454280e-02, 9.09728482e-02,
          9.40827578e-02, 1.20989144e-01, 2.24082284e-02, 1.12228021e-02,
          7.65503524e-03, 3.17113072e-01, 4.47278678e-01, 7.15793446e-02,
          3.19469184e-01, 5.62997796e-02, 1.54429777e-02, 0., 0., 0., 0.,
          0., 1.83302045e-01, 1.14750713e-01, 9.99798402e-02,
          1.22623434e-02, 7.11764395e-03, 0., 0., 0., 0., 3.38958018e-02,
          2.10757717e-01, 0., 0., 4.15688753e-03, 1.31087815e-02,
          7.32470214e-01, 4.14545722e-02, 2.70793810e-02, 4.61521000e-01,
          2.44292736e+00, 0., 0., 6.22349931e-03, 2.38657258e-02,
          1.49238333e-02, 0., 2.16525421e-02, 0., 4.48600858e-01,
          1.09208882e-01, 1.25496425e-02, 5.36172837e-02, 1.25117338e+00,
          9.02530253e-02, 0., 0., 1.41911983e-01, 5.74358046e-01,
          3.14985126e-01, 6.38284236e-02, 7.80791119e-02, 1.54100001e-01,
          3.23972404e-02, 4.14915644e-02, 1.58542842e-02, 0., 0.,
          1.25022810e-02, 1.91082992e-02, 5.21417916e-01, 4.29896623e-01,
          8.73271562e-03, 0., 0., 0., 0., 6.61987364e-02, 7.16043651e-01,
          3.00627738e-01, 2.15545669e-02, 0., 0., 0., 0., 0.,
          2.58028433e-02, 1.17546403e+00, 3.38698745e-01, 9.69985221e-03,
          0., 7.58919166e-03, 0., 2.08539981e-03, 1.39103513e-02,
          1.27711192e-01, 2.78710604e-01, 1.37634620e-01, 2.72472408e-02,
          2.90647466e-02, 4.00317729e-01, 1.10510089e-01, 0., 0., 0., 0.,
          0., 0., 0., 4.51128244e+00, 4.26206291e-01, 1.41728640e-01, 0.,
          0., 0., 0., 0., 0., 2.42026258e+00, 2.74594307e+00,
          9.09229934e-01, 7.53678158e-02, 0., 0., 0., 0., 0.,
          5.76224864e-01, 6.39005601e-01, 4.49409932e-01, 3.44068587e-01,
          1.83098018e-02, 0., 0., 0., 0., 0., 3.60219888e-02,
          3.43138069e-01, 6.38339579e-01, 1.81349274e-02, 0.,
          1.14182448e-02, 0., 3.40410993e-02, 9.30731446e-02,
          2.49351524e-02, 0., 5.28463542e-01, 1.98725998e-01,
          1.14824325e-01, 2.09390447e-01, 7.46618032e-01, 0., 0., 0.,
          4.81402129e-03, 3.67576480e-01, 4.82945979e-01, 1.19912505e-01,
          7.32312500e-02, 3.31329793e-01, 1.46030458e-02, 4.24285606e-03,
          0., 0., 1.06411576e-01, 8.65059942e-02, 1.07761748e-01,
          3.96018475e-01, 5.98312795e-01, 2.15166032e-01, 4.78913821e-03,
          0., 6.21175244e-02, 1.50772063e-02, 6.45821309e-03,
          1.62238657e-01, 4.17494804e-01, 1.97017230e-02, 2.74902582e-03,
          3.25542246e-03, 4.16791858e-03, 0., 1.04839616e-02,
          8.37739371e-03, 4.24284488e-03, 3.52301985e-01, 3.74670178e-01,
          3.65354083e-02, 0., 0., 0., 6.16620993e-03, 1.55558735e-01,
          6.76317215e-01, 2.76202708e-01, 4.54727653e-03, 0., 0., 0., 0.,
          0., 3.47425222e-01, 1.45676279e+00, 0., 0., 0., 0., 0.,
          1.15651991e-02, 0., 9.35594887e-02, 2.32926041e-01,
          1.50820771e-02, 4.36831778e-03, 3.20735164e-02, 2.86766440e-01,
          4.24146712e-01, 0., 0., 0., 0., 0., 0., 0., 1.14674079e+00,
          2.75212693e+00, 1.13525641e+00, 0., 0., 0., 0., 0., 0.,
          3.01858974e+00, 1.69174016e+00, 1.13172129e-01, 2.55623132e-01,
          3.50314565e-03, 0., 4.54823822e-02, 5.14694452e-02,
          1.09364420e-01, 6.81428075e-01, 9.93580043e-01, 0., 0.,
          1.83071658e-01, 1.85978323e-01, 5.72042882e-01, 2.72679236e-02,
          0., 0., 0., 3.58555000e-03, 1.32260928e-02, 6.05607815e-02,
          1.05486453e-01, 3.81405056e-01, 1.83271170e-01, 7.04563111e-02,
          2.38164216e-02, 0., 0., 0., 1.73923522e-01, 2.58759469e-01,
          4.27789837e-01, 1.50878692e+00, 0., 0., 0., 0., 0., 0., 0.,
          2.97483230e+00, 9.20671284e-01, 0., 0., 0., 0., 0., 0., 0.,
          3.64121532e+00, 0., 0., 0., 0., 0., 0., 0., 1.78391266e+00,
          8.09325457e-01, 0., 0., 0., 0., 0., 0., 3.43709022e-01,
          7.28271484e-01, 1.66780539e-02, 0., 0., 0., 0., 7.35604484e-03,
          1.50949238e-02, 5.10085642e-01, 4.55526978e-01, 0., 0., 0., 0.,
          0., 0., 0., 1.66948691e-01, 1.02058744e+00, 2.34069154e-01, 0.,
          0., 0., 0., 1.20642772e-02, 5.08582825e-03, 5.29719852e-02,
          2.83817887e-01, 1.53412744e-01, 1.78672504e-02, 1.47099681e-02,
          5.14670759e-02, 1.38824180e-01, 2.21744969e-01, 1.28861457e-01,
          1.05606891e-01, 3.42672318e-02, 0., 0., 0., 2.06902653e-01,
          1.16575754e+00, 1.18070632e-01, 0., 0., 0., 0., 0., 0.,
          6.23899317e+00, 0., 0., 0., 0., 2.28941619e-01, 5.97729862e-01,
          0., 0., 0., 0., 3.54943587e-03, 0., 6.42999649e-01,
          1.81293920e-01, 0., 3.49403173e-02, 6.57047510e-01, 0., 0., 0.,
          0., 0., 0., 0., 2.57835245e+00, 1.77846408e+00, 0., 0.,
          2.92083323e-02, 1.88050494e-01, 1.15459844e-01, 2.05562338e-01,
          1.27717710e+00, 5.00549734e-01, 0., 0., 0., 2.08590627e-01,
          7.83373564e-02, 8.09309334e-02, 4.56238061e-01, 7.94164300e-01,
          0., 0., 0., 0., 5.16157784e-03, 0., 1.45568699e-02,
          2.05101800e+00, 4.25550371e-01, 2.86145695e-02, 0., 0., 0., 0.,
          0., 1.73748362e+00, 1.69797254e+00, 0., 0., 0., 0., 0.,
          1.24359410e-02, 3.03915143e-02, 7.02666700e-01, 4.90100086e-02,
          0., 0., 2.74902582e-03, 0., 4.02929028e-03, 0., 0.,
          2.03435957e-01, 5.89892328e-01, 0., 0., 0., 0., 0., 0., 0.,
          1.97590664e-01, 6.90388858e-01, 0., 0., 0., 0., 0., 0.,
          4.29410208e-03, 8.79167616e-01, 1.80428207e-01, 3.63011733e-02,
          0., 0., 0., 0., 2.27999955e-01, 0., 1.07196011e-02,
          1.41652077e-02, 7.44903460e-04, 0., 6.08859479e-01,
          4.39342690e+00, 9.09831724e-04, 0., 0., 8.01384673e-02,
          6.83600664e-01, 2.32536152e-01, 0., 0., 0., 0., 0., 0.,
          4.64695305e-01, 2.08997995e-01, 1.48206323e-01, 3.56067330e-01,
          5.28967619e-01, 0., 0., 8.87242407e-02, 0., 0., 0., 0., 0.,
          2.84625578e+00, 4.03735220e-01, 8.34925175e-02, 1.61921000e+00,
          1.76788700e+00, 0., 0., 0., 0., 0., 1.69391800e-02,
          2.08434127e-02, 9.78806913e-01, 0., 0., 0., 0., 0., 0., 0.,
          1.77777886e+00, 9.60034877e-03, 0., 0., 4.57470864e-02,
          1.25112506e-02, 1.01041943e-02, 3.47233415e-02, 1.72110826e-01,
          1.88851666e+00, 1.86600804e-01, 2.51323014e-01, 3.53399134e+00,
          8.69283751e-02, 0., 0., 0., 0., 2.05756083e-01, 9.99680255e-04,
          1.00728832e-01, 1.16442502e+00, 1.88258756e-02, 2.30193138e-03,
          1.36107672e-02, 6.56343950e-03, 1.25486893e-03, 0., 0., 0.,
          1.36043116e-01, 1.90393880e-01, 2.63020024e-02, 0., 0., 0., 0.,
          0., 0., 5.87494969e-01, 2.21396580e-01, 0., 0., 0., 0., 0., 0.,
          0., 6.29523098e-01, 4.15480196e-01, 2.04627812e-02, 0., 0., 0.,
          0., 6.74941242e-02, 0., 0., 2.41308287e-01, 8.61933902e-02,
          8.78059864e-02, 2.94118285e+00, 7.70227835e-02, 0.,
          2.04017147e-01, 1.62038580e-01, 1.92717880e-01, 1.68720838e-02,
          3.92321460e-02, 2.51024038e-01, 8.84558912e-03, 2.63795778e-02,
          7.79277682e-02, 0., 0., 1.50105264e-02, 2.00756788e-01,
          3.95796895e-01, 1.07036710e+00, 2.75247425e-01, 0., 0.,
          4.61325012e-02, 2.39826202e-01, 1.52115673e-01, 1.26447924e-03,
          2.11445615e-03, 2.34280340e-02, 1.30880785e+00, 4.38544452e-02,
          1.33266728e-02, 4.71488774e-01, 2.81170893e+00, 1.04410541e+00,
          4.91378456e-03, 0., 0., 0., 0., 0., 7.57442564e-02, 0., 0., 0.,
          0., 0., 5.73008433e-02, 4.82857138e-01, 1.22548544e+00,
          4.18582916e-01, 0., 0., 0., 0., 0., 0., 0., 1.86867833e+00,
          7.58383036e-01, 1.11357760e+00, 1.46423876e-01, 0., 0., 0., 0.,
          0., 1.16038299e+00, 4.47034836e-04, 1.01709500e-01,
          8.77978563e-01, 6.60449043e-02, 0., 0., 0., 0., 0.,
          3.51762772e-03, 1.64645147e-02, 5.20459637e-02, 5.13093770e-02,
          2.52911579e-02, 5.20318281e-03, 4.53716516e-03, 0., 0., 0., 0.,
          3.73066038e-01, 2.78899670e-01, 0., 0., 0., 0., 0., 0., 0.,
          1.37612848e-02, 4.15741801e-01, 3.80141288e-01, 0., 0., 0., 0.,
          0., 0., 1.73681304e-01, 2.03294769e-01, 1.38346642e-01,
          6.98600933e-02, 2.64166355e+00, 0., 0., 7.67448545e-03, 0., 0.,
          2.68601775e-02, 3.36821824e-01, 2.85359478e+00, 3.89990434e-02,
          1.83755886e-02, 0., 0., 0., 5.26924729e-01, 3.97584110e-01,
          4.74875927e-01, 3.96463305e-01, 0., 0., 0., 3.06029757e-03, 0.,
          3.40935469e-01, 1.14770904e-01, 4.88080978e-02, 6.41841367e-02,
          4.05515343e-01, 7.53194392e-02, 9.46938340e-03, 0., 0.,
          3.05701375e+00, 1.28254020e+00, 1.73258167e-02, 0., 0., 0., 0.,
          1.88068673e-02, 1.11636911e-02, 9.73437540e-03, 2.77455270e-01,
          7.57344067e-01, 1.35291919e-01, 1.19175948e-01, 5.56699783e-02,
          1.97782591e-02, 1.12900369e-01, 4.60735448e-02, 8.57015792e-03,
          1.63863391e-01, 7.04099298e-01, 0., 0., 0., 2.93179955e-02,
          2.20526040e-01, 3.41377854e-02, 1.09846465e-01, 3.37172002e-01,
          4.61423025e-02, 4.05794121e-02, 9.52498056e-03, 6.99049681e-02,
          1.73658550e-01, 3.47450376e-03, 7.96801150e-02, 3.77264023e-01,
          5.85917570e-02, 7.29957316e-03, 0., 6.99623534e-03,
          7.99170043e-03, 1.39637021e-02, 6.38543442e-02, 2.76191682e-01,
          6.31542057e-02, 9.48220585e-03, 0., 0., 0., 6.89755846e-03,
          7.23767728e-02, 8.50188583e-02, 2.26785000e-02, 2.38580555e-02,
          5.08295298e-02, 9.52188950e-03, 0., 0., 1.94198843e-02,
          9.77871865e-02, 8.69062357e-03, 7.98246339e-02, 3.73654634e-01,
          7.49619007e-02, 1.11524455e-01, 5.49353100e-02, 6.64261356e-02,
          6.30856603e-02, 1.42203569e-02, 0., 0., 4.38548364e-02,
          1.24695376e-02, 1.28137007e-01, 1.12984695e-01, 3.01916146e+00,
          0., 0., 2.41712108e-02, 1.21792927e-01, 3.98025699e-02,
          2.09672861e-02, 1.77313715e-01, 5.01370966e-01, 4.48117197e-01,
          6.07320927e-02, 0., 4.60475869e-02, 1.74243346e-01,
          1.52312040e+00, 3.06491624e-03, 0., 0., 1.67002492e-02,
          5.23937913e-03, 3.76640558e-02, 1.10938206e-01, 3.02704982e-02,
          9.14405379e-03, 6.37469394e-03, 5.41330501e-03, 1.37187336e-02,
          3.19092013e-02, 2.41641998e-01, 1.34030759e-01, 1.27886891e-01,
          3.01584214e-01, 8.27430189e-01, 7.61502147e-01, 0., 0.,
          9.08822846e-03, 0., 4.44358587e-03, 0., 0., 0., 1.20323986e-01,
          2.29695654e+00, 1.57195166e-01, 1.10797770e-01, 1.44082427e-01,
          7.53191337e-02, 0., 0., 0., 7.79361308e-01, 2.44118190e+00, 0.,
          0., 0., 0., 0., 0., 0., 2.68245506e+00, 4.62961942e-01, 0., 0.,
          0., 0., 0., 9.78348702e-02, 2.57293314e-01, 1.54101586e+00,
          2.78228998e-01, 0., 0., 0., 0., 3.47453356e-03, 1.03889436e-01,
          1.34749338e-01, 4.75929409e-01, 2.73600835e-02, 6.32244861e-04,
          0., 0., 0., 9.13403705e-02, 9.21231508e-03, 1.91836094e-03,
          2.45563574e-02, 6.86062947e-02, 2.57256459e-02, 4.18865904e-02,
          2.55356412e-02, 3.86724696e-02, 5.88062033e-02, 1.42709523e-01,
          1.60342883e-02, 5.08041568e-02, 6.88518643e-01, 1.84844792e-01,
          3.03464402e-02, 5.13178520e-02, 3.17433514e-02, 1.85489666e-03,
          0., 0., 0., 1.42677456e-01, 9.90553558e-01, 2.70202494e+00,
          2.86330283e-02, 0., 1.53725594e-02, 7.61146024e-02,
          1.66958079e-01, 0., 0., 0., 1.20576888e-01, 1.47138208e-01,
          9.71746072e-03, 0., 7.12869465e-02, 1.36028945e+00,
          3.43925366e-03, 1.57646846e-03, 6.41260063e-03, 4.51617241e-02,
          0., 0., 6.00326108e-03, 4.67389449e-02, 8.91454965e-02,
          5.52936643e-03, 0., 6.76025636e-03, 1.72839671e-01,
          1.01954481e-02, 0., 6.46734312e-02, 4.54574883e-01,
          2.01347518e+00, 1.06295971e-02, 7.56658753e-03, 2.65220739e-02,
          1.73557833e-01, 0., 0., 1.27841067e-02, 0., 7.56469369e-03, 0.,
          3.48691791e-02, 6.12841845e-02, 7.97336459e-01, 2.08666253e+00,
          1.81030855e-01, 0., 0., 2.74902582e-03, 8.40838104e-02,
          7.42787838e-01, 2.73295604e-02, 6.15687147e-02, 4.28898111e-02,
          0., 0., 0., 1.97725147e-01, 1.97294557e+00, 1.40730113e-01, 0.,
          0., 0., 0., 0., 0., 1.01450980e-02, 1.36523998e+00,
          1.71324193e+00, 0., 1.60235316e-02, 0., 0., 0., 0.,
          2.52945125e-01, 2.46592593e+00, 1.41257203e+00, 0., 0., 0., 0.,
          0., 0., 0., 0., 3.13057613e+00, 2.92100668e-01, 1.01192176e-01,
          0., 0., 0., 0., 0., 0., 2.26748252e+00, 2.06295753e+00,
          2.15898037e-01, 0., 0., 0., 0., 4.95725572e-02, 8.89608487e-02,
          2.09261513e+00, 1.07754219e+00, 8.82748887e-02, 0., 0. ]
      - [ 0., 0., 0., 0., 2.38748137e-02, 6.63212910e-02, 4.47173640e-02,
          0., 0., 0., 1.54373972e-02, 8.16683378e-03, 1.82799976e-02,
          2.06626672e-02, 3.24528515e-02, 2.51572039e-02, 8.17277469e-03,
          7.42171472e-03, 7.42286118e-03, 1.28453840e-02, 7.36119077e-02,
          2.81961393e-02, 3.06032482e-03, 5.16875088e-03, 2.04565953e-02,
          3.78032587e-02, 1.07367653e-02, 0., 0., 0., 0., 0., 0.,
          3.01823044e+00, 1.95535088e+00, 0., 4.10720140e-01, 0.,
          3.79607081e-03, 1.29086105e-02, 6.22923553e-01, 5.26019931e-01,
          8.53269339e-01, 9.20371294e-01, 2.34330326e-01, 1.39435887e+00,
          0., 1.89434841e-01, 4.96903360e-01, 5.88879406e-01, 0., 0., 0.,
          0., 7.03339398e-01, 6.15998358e-02, 1.88823342e-02,
          1.80518374e-01, 1.64178684e-02, 5.34615219e-02, 5.33883214e-01,
          1.25002667e-01, 1.16635501e+00, 9.24459875e-01, 0.,
          2.03599408e-02, 3.96971889e-02, 9.20906812e-02, 4.66351211e-02,
          6.99964389e-02, 0., 1.26815450e+00, 0., 0., 0., 0., 0., 0.,
          2.05412716e-01, 4.78376985e-01, 1.20886517e+00, 0.,
          2.84026731e-02, 1.58701148e-02, 6.16621785e-03, 6.23101182e-02,
          1.32825568e-01, 4.24702257e-01, 2.24158973e-01, 0.,
          5.84901050e-02, 2.17595339e+00, 2.26125523e-01, 6.85149059e-02,
          0., 0., 0., 0., 0., 7.37454474e-01, 5.77707481e+00,
          5.56078434e-01, 0., 0., 0., 0., 0., 0., 4.02355194e-03,
          6.32202718e-04, 0., 0., 1.59429498e-02, 4.91783842e-02,
          3.10873371e-02, 1.07236207e-02, 0., 1.63858221e-03,
          1.63185631e-03, 3.38294394e-02, 2.73845643e-02, 4.10044193e-02,
          1.02075890e-01, 8.74218438e-03, 7.41120195e-03, 1.34234142e-03,
          0., 0., 3.50028500e-02, 4.81835455e-02, 6.15587533e-01,
          3.25369835e-01, 1.92944817e-02, 0., 0., 0., 0., 0.,
          3.56045440e-02, 4.80815589e-01, 8.26401263e-02, 5.20539045e-01,
          2.17222166e+00, 4.27983515e-02, 2.82437372e+00, 0., 0., 0., 0.,
          0., 0., 1.06577623e+00, 1.48252034e+00, 5.34404230e+00, 0., 0.,
          0., 0., 0., 0., 0., 0., 3.72877836e+00, 0., 0., 0., 0., 0., 0.,
          0., 1.14727259e+00, 9.57497537e-01, 0., 0., 0., 0., 0., 0., 0.,
          4.74185181e+00, 0., 0., 0., 0., 0., 0., 0., 8.84329736e-01,
          5.66014099e+00, 7.59721696e-01, 6.96590990e-02, 4.22975123e-02,
          0., 0., 0., 1.59697562e-01, 4.05755132e-01, 3.98938847e+00,
          9.61414874e-01, 5.74407148e+00, 0., 0., 0., 0., 0., 0., 0.,
          3.57495248e-01, 3.04323316e+00, 5.32211125e-01, 7.96657354e-02,
          2.16180474e-01, 0., 0., 0., 0., 1.79133005e-02, 2.76770890e-02,
          2.38032099e-02, 2.62960363e-02, 2.48171408e-02, 2.64274050e-02,
          1.22131258e-02, 1.19776009e-02, 0., 1.72525525e-01,
          8.51458609e-02, 5.26344478e-02, 1.79716498e-02, 7.51665933e-03,
          1.29018147e-02, 5.19440658e-02, 1.52956173e-01, 2.00564221e-01,
          0., 0., 0., 0., 3.16016302e-02, 2.08046123e-01, 1.19342494e+00,
          5.16076922e-01, 0., 0., 0., 0., 2.28377223e-01, 1.25678289e+00,
          2.02906758e-01, 5.43757379e-02, 1.16054518e-02, 2.31874008e-02,
          4.68862176e-01, 1.17602916e-02, 9.05202627e-02, 1.18377173e+00,
          1.08117318e+00, 0., 0., 0., 0., 4.62327540e-01, 5.58879599e-02,
          0., 3.13555539e-01, 1.59073186e+00, 0., 0., 0., 6.59515783e-02,
          3.70253265e-01, 0., 7.82540739e-02, 1.55958310e-01,
          1.94002390e+00, 0., 0., 0., 0., 2.15753168e-01, 3.58773605e-03,
          5.16037531e-02, 6.93333864e-01, 1.41221666e+00, 1.73023101e-02,
          0., 0., 2.86978573e-01, 0., 0., 0., 7.17705488e-02,
          4.93114918e-01, 6.27997369e-02, 9.42982882e-02, 4.55532491e-01,
          9.18067098e-01, 3.79121095e-01, 0., 4.66846861e-03, 0.,
          8.20575561e-03, 0., 0., 6.46429658e-01, 3.54302669e+00,
          1.49839127e+00, 8.10098350e-01, 1.57451615e-01, 3.36549692e-02,
          2.12842766e-02, 7.93832764e-02, 1.71501696e-01, 2.34927595e-01,
          6.33256316e-01, 0., 0., 2.11481750e-01, 1.11395097e+00,
          1.52244592e+00, 1.58377916e-01, 0., 0., 0., 1.32313967e-02,
          6.32202718e-04, 0., 3.13196220e-02, 8.67131203e-02,
          1.97779998e-01, 2.32042715e-01, 2.06383206e-02, 0., 0., 0., 0.,
          1.79327905e-01, 1.26035094e+00, 2.17047885e-01, 0., 0., 0., 0.,
          0., 0., 0., 4.15019989e-01, 4.45956498e-01, 7.32994974e-01,
          2.71192491e-01, 0., 0., 0., 0., 0., 0., 6.25697896e-02,
          5.16850829e-01, 6.74294174e-01, 9.02029313e-03, 1.57645345e-03,
          2.26014084e-03, 0., 2.48872712e-01, 1.29850939e-01,
          4.59598787e-02, 4.21956107e-02, 2.15186119e-01, 8.59980211e-02,
          0., 1.68017694e-03, 0., 2.45633602e-01, 1.37247622e+00,
          8.57828464e-03, 0., 1.81754027e-02, 1.09285815e-02, 0., 0., 0.,
          2.17313334e-01, 1.67846107e+00, 0., 0., 0., 0., 0., 0., 0.,
          1.96047103e+00, 4.13128734e-01, 0., 0., 0., 0., 0., 0., 0.,
          9.34605181e-01, 1.25205505e+00, 0., 0., 0., 0., 0., 0.,
          2.80511659e-02, 1.40728998e+00, 4.40275490e-01, 8.52174649e-04,
          8.08227435e-03, 0., 0., 0., 0., 0., 0., 2.12486446e-01,
          4.71205920e-01, 2.02111173e+00, 0., 0., 0., 0., 0.,
          8.48157465e-01, 3.46306235e-01, 1.46054938e-01, 7.01581120e-01,
          0., 0., 7.73328543e-03, 0., 0., 0., 4.15682793e-03,
          6.10764474e-02, 7.22962201e-01, 5.73938429e-01, 0., 0., 0., 0.,
          0., 4.05073583e-01, 5.83311081e-01, 1.20316066e-01,
          6.55008197e-01, 7.33250529e-02, 0., 0., 4.47064638e-04,
          4.96685365e-03, 1.08367109e+00, 1.30083799e-01, 3.27807106e-02,
          4.57204804e-02, 8.03792104e-02, 0., 6.23268122e-03,
          6.33302284e-03, 1.60741284e-01, 1.52894437e-01, 4.21573728e-01,
          2.20515877e-02, 2.50975927e-03, 0., 5.00426218e-02,
          1.16211716e-02, 1.07016265e-02, 1.00430019e-01, 3.19275558e-02,
          1.19590893e-01, 6.88409507e-02, 1.72357336e-01, 1.23527132e-01,
          0., 0., 0., 0., 9.30850282e-02, 1.16081871e-01, 4.31075007e-01,
          1.53889239e-01, 4.86531556e-02, 0., 0., 2.23481655e-01,
          3.90225261e-01, 3.92426141e-02, 0., 0., 0., 0., 0.,
          2.31234287e-03, 1.34728476e-02, 7.37766087e-01, 6.06435239e-02,
          0., 0., 0., 0., 0., 0., 0., 5.17595291e-01, 9.73218918e-01, 0.,
          0., 0., 0., 0., 0., 0., 9.17411566e-01, 1.16119564e+00, 0., 0.,
          0., 0., 0., 0., 0., 1.94893014e-02, 9.39309895e-01,
          5.91973424e-01, 3.79115254e-01, 0., 0., 9.73704329e-04,
          8.52164929e-04, 2.78443098e-04, 6.44159764e-02, 5.83716631e-02,
          2.46478319e-02, 7.43972063e-01, 0., 0., 8.94129276e-04, 0., 0.,
          0., 3.78439039e-01, 1.30606091e+00, 1.05250269e-01,
          1.40635058e-01, 0., 1.85002293e-03, 0., 0., 9.98365358e-02,
          3.19270253e-01, 2.04852596e-01, 9.85609442e-02, 3.86718184e-01,
          7.83551261e-02, 0., 0., 0., 0., 0., 1.32145239e-02,
          1.70251280e-01, 9.67645347e-01, 6.40336797e-02, 5.35570085e-01,
          3.31519060e-02, 3.06706429e-02, 4.22981791e-02, 3.17660496e-02,
          1.48381069e-02, 9.42550600e-03, 0., 1.37504458e-01,
          2.78978944e-02, 0., 0., 2.38133632e-02, 3.83377075e-02,
          1.03263088e-01, 2.24044263e-01, 1.61701173e-01, 1.07737929e-01,
          0., 0., 3.94693948e-03, 2.47012116e-02, 1.89743340e-02,
          9.11938474e-02, 7.60192752e-01, 0., 0., 0., 7.42022544e-02,
          7.58354962e-01, 1.25175919e-02, 0., 0., 0., 0., 0.,
          4.44443040e-02, 1.25317112e-01, 2.63279285e-02, 8.58991221e-03,
          1.49001610e-02, 1.25486893e-03, 2.35715378e-02, 1.27930298e-01,
          8.55262280e-02, 2.39505190e-02, 0., 1.92495994e-02,
          5.19432127e-02, 1.88821033e-01, 0., 0., 1.20381927e-02,
          4.07054238e-02, 5.58185717e-03, 0., 1.58256292e-01,
          2.63244808e-01, 9.90671366e-02, 0., 1.92115791e-02,
          9.26156715e-03, 0., 0., 6.18463755e-03, 1.78033225e-02,
          1.10516652e-01, 2.27960229e-01, 1.29326582e-01, 1.70399360e-02,
          0., 0., 1.34119391e-03, 0., 2.78413296e-04, 0., 8.80390406e-03,
          6.97411448e-02, 2.52998412e-01, 3.61269973e-02, 0.,
          2.73059607e-02, 0., 0., 0., 3.62286307e-02, 9.67815071e-02,
          9.46272314e-01, 7.89329946e-01, 0., 0., 0., 5.24046645e-03,
          3.40482265e-01, 1.02002227e+00, 1.81131586e-01, 7.07341656e-02,
          2.02643916e-01, 0., 0., 0., 0., 0., 9.98869121e-01,
          4.49481845e-01, 0., 0., 0., 0., 0., 2.00234726e-02,
          2.23235548e-01, 7.81662881e-01, 3.32398787e-02, 0., 0., 0., 0.,
          0., 0., 0., 1.59616560e-01, 4.33163345e-01, 2.27353871e-01,
          1.58759430e-02, 5.30444570e-02, 0., 0., 0., 1.00932326e-02,
          9.48817469e-03, 3.08038667e-02, 7.29429245e-01, 1.01404160e-01,
          0., 0., 0., 8.78620386e-01, 1.61691710e-01, 0., 0., 0., 0., 0.,
          0., 5.97917810e-02, 4.50558960e-02, 1.49120808e-01,
          2.63584673e-01, 1.02434359e-01, 2.17278786e-02, 0., 0.,
          3.05082798e-01, 4.14762706e-01, 4.18518819e-02, 3.43922619e-03,
          0., 4.54727653e-03, 4.09311056e-03, 4.09311056e-03,
          5.30088656e-02, 5.42513669e-01, 1.76669899e-02, 0., 0., 0., 0.,
          0., 0., 3.59224796e-01, 8.14211592e-02, 0., 0., 0., 0., 0., 0.,
          9.52608585e-02, 3.88353765e-01, 0., 0., 0., 0., 2.55686343e-02,
          0., 3.11601043e-01, 2.01213270e-01, 1.15449261e-02,
          7.00325966e-02, 0., 0., 0., 0., 0., 0., 1.33192742e+00,
          3.06828290e-01, 2.61884555e-03, 0., 0., 0., 1.53974984e-02,
          3.93498503e-03, 2.71993279e-02, 2.06179214e+00, 4.46067244e-01,
          2.07274035e-01, 1.58106014e-02, 1.83582269e-02, 5.20708188e-02,
          1.40865266e-01, 2.32716594e-02, 0., 0., 4.61057663e-01,
          1.48494840e-02, 8.98013730e-03, 1.71890318e-01, 9.90824401e-02,
          1.20528992e-02, 8.52190249e-04, 0., 1.56417545e-02,
          4.78062183e-02, 1.08788185e-01, 1.65093184e-01, 2.45336458e-01,
          5.23935817e-03, 3.92156839e-03, 1.32818883e-02, 5.38720563e-02,
          1.41990855e-02, 2.24103510e-01, 0., 0., 0., 0., 0.,
          5.41749671e-02, 1.35909820e+00, 3.24134797e-01, 0., 0., 0.,
          1.12335205e+00, 2.69044548e-01, 7.36962631e-02, 8.39325879e-03,
          0., 0., 0., 1.37014344e-01, 7.56572783e-01, 1.28560096e-01, 0.,
          0., 0., 0., 0., 6.92368858e-03, 2.86342442e-01, 9.50157821e-01,
          0., 0., 0., 0., 3.16898129e-03, 0., 0., 1.16806090e-01, 0., 0.,
          0., 4.45922464e-03, 4.81668226e-02, 6.05891794e-02,
          4.85206693e-02, 3.65038306e-01, 0., 0., 0., 0., 0.,
          1.11731524e-02, 1.60655051e-01, 1.80194572e-01, 2.33077168e-01,
          0., 0., 0., 0., 7.74000585e-02, 7.65487626e-02, 1.02516937e+00,
          1.99963793e-01, 0., 1.57254580e-02, 6.27530320e-03,
          8.78289714e-03, 6.38585463e-02, 6.00493401e-02, 7.48907216e-03,
          1.58673879e-02, 8.97258669e-02, 3.76170874e-02, 0., 0., 0.,
          3.83345992e-03, 4.09316784e-03, 0., 1.17254257e-03,
          6.89323485e-01, 1.25643039e+00, 0., 0., 0., 0., 0., 0., 0.,
          2.30592266e-02, 2.78165007e+00, 3.73471864e-02, 1.60230100e-02,
          2.36874819e-02, 1.26233650e-02, 0., 0., 0., 2.20036745e-01,
          1.83776212e+00, 7.84316659e-03, 3.13256755e-02, 1.90616742e-01,
          4.39917445e-02, 4.96076822e-01, 4.63037133e-01, 1.09246291e-01,
          8.19372386e-02, 0., 1.13424085e-01, 7.52121024e-03, 0.,
          2.64997855e-02, 7.45375752e-02, 1.76992863e-01, 8.74822795e-01,
          2.08181009e-01, 2.25419372e-01, 6.39513791e-01, 6.15902245e-01,
          5.32039881e-01, 3.20299938e-02, 1.43312514e-02, 1.88503228e-02,
          0., 0., 2.71241516e-01, 0., 7.58927464e-01, 6.47705674e-01,
          1.31916001e-01, 0., 0., 0., 0., 0., 2.69677490e-02,
          1.52965754e-01, 8.57566148e-02, 1.97737902e-01, 3.71977359e-01,
          1.59934148e-01, 6.86610397e-03, 3.98810394e-03, 0., 0., 0., 0.,
          0., 2.44500935e-01, 4.26377803e-01, 0., 0., 0., 0., 0., 0., 0.,
          8.76138061e-02, 3.31858307e-01, 3.43339890e-01, 0., 0., 0., 0.,
          0., 0., 2.19384253e-01, 8.98341179e-01, 1.50131822e+00, 0., 0.,
          2.75210172e-01, 2.76413243e-02, 2.29891427e-02, 4.95415181e-03,
          8.09210259e-03, 1.53470710e-02, 3.74885020e-03, 1.90796051e-03,
          4.00865562e-02, 1.42227367e-01, 3.52606028e-02, 3.98804527e-03,
          2.05915235e-03, 1.11128330e-01, 9.44360942e-02, 4.16662591e-03,
          1.71025004e-02, 1.51133724e-02, 2.03221470e-01, 5.56294769e-02,
          9.65232998e-02, 3.10551703e-01, 5.31936139e-02, 0., 0., 0.,
          4.52313244e-01, 9.41962004e-03, 0., 0., 0., 1.18390052e-02,
          1.52121130e-02, 4.60649244e-02, 1.65795338e+00, 1.00840127e+00,
          1.11863673e-01, 1.64608043e-02, 0., 0., 1.62144266e-02,
          5.62395751e-02, 9.32189077e-02, 2.26707458e+00, 3.20191145e-01,
          9.52039719e-01, 1.34031701e+00, 1.54852038e-02, 1.46542620e-02,
          0., 0., 0., 0., 0., 1.60328782e+00, 1.96347646e-02, 0., 0., 0.,
          0., 1.75433811e-02, 1.36099774e-02, 3.50974530e-01,
          1.37135535e-01, 3.72790396e-02, 9.87520255e-03, 5.80275767e-02,
          7.56472349e-03, 1.09205572e-02, 1.73579559e-01, 2.45217532e-01,
          1.41805485e-01, 0., 1.59202293e-02, 1.87336076e-02,
          1.41762570e-01, 2.49479666e-01, 3.22016440e-02, 6.60950458e-03,
          2.76410719e-03, 0., 0., 3.93735827e-04, 0., 4.24697576e-03,
          2.77388811e-01, 1.86048806e-01, 2.04261113e-03, 9.36453114e-04,
          0., 0., 0., 0., 0., 2.19105780e-02, 1.89520752e+00,
          1.03611186e-01, 0., 0., 0., 0., 0., 0., 1.22200042e-01,
          1.93169451e+00, 7.74501920e-01, 0., 0., 0., 0., 5.96646294e-02,
          3.98770094e-01, 1.33410618e-01, 2.49789238e-01, 1.88557968e-01,
          0., 0., 0., 0., 0., 0., 1.79698002e-02, 1.61314404e+00,
          4.97371927e-02, 0., 0., 0., 0., 3.63798738e-01, 1.49284172e+00,
          2.15692282e-01, 0., 0., 0., 0., 0., 0., 5.95862903e-02,
          1.09227657e-01, 5.22561550e-01, 9.13876146e-02, 2.68549472e-01,
          1.20682113e-01, 0., 1.94732528e-02, 0., 0., 0., 0., 0.,
          8.57397258e-01, 1.93243682e+00, 3.10892649e-02, 1.37883076e-03,
          1.36798382e-01, 4.26970959e-01, 6.97464764e-01, 5.38215816e-01,
          1.25150517e-01, 0., 0., 0., 0., 0., 1.88623108e-02,
          2.87024844e-02, 1.65261376e+00, 1.13022655e-01, 2.92479526e-02,
          0., 0., 0., 0., 0., 0., 1.03441358e+00, 6.48958564e-01,
          2.52509266e-01, 0., 0., 0., 0., 0., 8.92003160e-03,
          1.82399893e+00, 0., 0., 0., 0., 0., 0., 0., 0., 1.62745106e+00,
          7.90526688e-01, 0., 0., 0., 0., 0., 0., 0., 0., 3.05436993e+00,
          0., 0., 0., 3.79607081e-03, 0., 0., 2.09924839e-02,
          6.67088479e-02, 8.85440826e-01, 8.65137503e-02, 0., 0., 0., 0.,
          5.92366695e-01, 1.58815712e-01, 7.58942366e-02, 3.10461912e-02,
          3.73644710e-01, 9.87377018e-03, 0., 4.47346903e-02, 0.,
          3.02749872e-03, 0., 0., 2.77492523e-01, 5.37202120e-01,
          2.86764562e-01, 6.63546696e-02, 0., 1.23044181e+00,
          5.40151477e-01, 6.54038182e-03, 0., 0., 0., 0., 0.,
          6.53484836e-02, 1.57525420e-01, 1.94527805e-02, 0., 0., 0.,
          1.68514162e-01, 1.15255145e-02, 1.01364553e-01, 0., 0., 0., 0.,
          0., 0., 3.83482337e+00, 0., 0., 0., 0., 4.37372625e-02,
          1.10011265e-01, 1.44396186e+00, 9.83528793e-01, 2.95474291e-01,
          0., 0., 0., 0., 2.77294517e-02, 4.47585806e-02, 1.76028693e+00,
          8.12686980e-01, 9.10471082e-02, 0., 0., 0., 0., 0., 0.,
          2.41446757e+00, 1.68920029e-02, 3.22666615e-02, 0., 0., 0., 0.,
          0., 0., 2.21864414e+00, 2.53556311e-01, 8.51451159e-02, 0., 0.,
          0., 0., 6.94903731e-03, 1.00804670e-02, 2.24829316e+00,
          7.33923912e-02, 2.85804123e-02, 0., 0., 0., 0., 6.94900751e-03,
          8.98886099e-03, 5.10787010e-01, 7.06797719e-01, 3.57645750e-03,
          0., 0., 0., 0., 2.87573896e-02, 1.90297678e-01, 1.28298968e-01,
          8.38296115e-02, 0., 0., 0. ]
      - [ 1.81497987e-02, 5.24073513e-03, 1.74520507e-01, 4.58192050e-01,
          1.25317231e-01, 1.00088548e-02, 5.31657636e-02, 1.07997477e-01,
          2.99102310e-02, 5.89264259e-02, 0., 3.13594252e-01,
          8.01287055e-01, 5.52903414e-01, 3.55884701e-01, 1.15327470e-01,
          5.69953620e-02, 2.58846562e-02, 0., 0., 2.73131788e-01,
          1.45250618e+00, 1.39006710e+00, 2.64168084e-01, 2.94744670e-02,
          0., 0., 0., 7.30550885e-02, 6.54442459e-02, 5.28986603e-02,
          4.73141186e-02, 2.71673918e+00, 3.76368105e-01, 0., 0., 0., 0.,
          0., 0., 4.09311289e-03, 2.48426899e-01, 2.96370059e-01,
          1.82702690e-01, 8.15891325e-02, 1.23301491e-01, 2.24112678e+00,
          3.22957546e-01, 7.86007568e-03, 1.25234118e-02, 3.59625481e-02,
          5.20326346e-02, 1.63147822e-02, 0., 6.56443909e-02,
          1.87832618e+00, 3.42314458e+00, 3.68040085e-01, 3.85008484e-01,
          0., 0., 0., 0., 0., 0., 4.50589061e-02, 0., 3.33852935e+00,
          8.97538304e-01, 3.70784491e-01, 1.13458529e-01, 0., 0., 0., 0.,
          3.60699832e-01, 4.28070164e+00, 8.00352335e-01, 6.28254235e-01,
          0., 0., 0., 0., 1.48872778e-01, 2.10161626e-01, 5.52551568e-01,
          1.12932193e+00, 4.04906690e-01, 0., 0., 0., 0., 0.,
          6.58259243e-02, 4.50519323e-01, 6.94033086e-01, 4.97515380e-01,
          9.84111279e-02, 0., 1.56986177e-01, 9.24156420e-03,
          1.24981813e-02, 1.32173330e-01, 1.27349526e-01, 1.16587497e-01,
          1.82318723e+00, 4.88489598e-01, 0., 1.17697297e-02,
          2.32357122e-02, 1.75542217e-02, 4.10363004e-02, 5.98087534e-02,
          3.28315981e-02, 3.63511406e-02, 5.89427212e-03, 0.,
          1.26296833e-01, 1.12727426e-01, 5.46477549e-02, 6.37809746e-03,
          5.09411097e-03, 5.69906607e-02, 9.61286575e-02, 2.27634888e-02,
          2.43085288e-02, 9.88348544e-01, 1.28300548e-01, 4.50065844e-02,
          1.56169966e-01, 1.43256709e-01, 1.60844490e-01, 2.54964400e-02,
          6.19246662e-02, 6.75083935e-01, 4.98107970e-02, 6.35327622e-02,
          1.81003332e-01, 2.92941719e-01, 1.19116068e-01, 2.32181698e-01,
          1.83770895e-01, 2.66659915e-01, 1.12958002e+00, 1.58784759e+00,
          2.81536031e+00, 1.59570903e-01, 7.86853433e-02, 6.34168386e-02,
          2.64134109e-02, 1.16443485e-01, 7.16309324e-02, 2.58000232e-02,
          6.40963650e+00, 1.30278337e+00, 7.13564456e-02, 2.11569555e-02,
          2.89257094e-02, 0., 0., 0., 0., 2.97944045e+00, 1.97896749e-01,
          0., 0., 2.83251524e-01, 2.54266292e-01, 2.78735794e-02,
          5.35264844e-03, 2.15799287e-02, 6.41934648e-02, 7.83323497e-03,
          1.13563605e-01, 5.86829782e-02, 8.60104337e-02, 4.85327281e-02,
          1.29334051e-02, 1.01820612e+00, 2.86152267e+00, 2.45152974e+00,
          4.01749790e-01, 9.64574888e-02, 0., 0., 0., 9.37189013e-02,
          1.27372339e-01, 3.01842809e+00, 5.76358318e-01, 8.08500051e-01,
          0., 1.38964085e-02, 0., 0., 2.39806138e-02, 1.39777744e+00,
          2.76435566e+00, 2.79192328e-01, 2.31704950e-01, 3.67710926e-02,
          0., 0., 0., 2.79888362e-01, 1.51785779e+00, 4.95986462e-01,
          6.17321655e-02, 3.61338723e-03, 3.79442750e-03, 5.10849431e-02,
          2.52474070e-01, 1.45491064e-01, 2.16559339e+00, 6.99070096e-02,
          2.13498659e-02, 7.60350168e-01, 4.80195321e-02, 3.48974392e-02,
          1.22172926e-02, 2.30121706e-02, 1.37883076e-03, 0.,
          2.10704934e-03, 1.02186906e+00, 5.47165036e-01, 1.99861348e+00,
          2.31686145e-01, 0., 0., 5.23934746e-03, 6.81534316e-03,
          4.68468182e-02, 3.05342942e-01, 2.79261136e+00, 2.15445971e+00,
          9.85909820e-01, 2.07417458e-01, 1.57544404e-01, 4.99397628e-02,
          0., 4.21121567e-02, 1.31712937e+00, 3.27347964e-01,
          1.85470041e-02, 0., 0., 4.93572205e-02, 3.81481797e-02,
          2.52308212e-02, 1.95622817e-01, 7.07798767e+00, 3.66862941e+00,
          2.36833715e+00, 1.33211970e-01, 2.39588730e-02, 6.39922172e-02,
          0., 5.31540159e-03, 1.93536773e-01, 2.25438103e-01,
          3.34241576e-02, 7.80227222e-03, 0., 8.71347561e-02,
          9.38466966e-01, 9.32959467e-02, 0., 9.77551285e-03,
          6.49436235e-01, 0., 1.47452264e-03, 0., 0., 1.29775810e+00,
          2.03151092e-01, 5.89747094e-02, 3.15996744e-02, 3.31130624e-01,
          8.60671848e-02, 7.85317421e-02, 2.90350944e-01, 1.22930038e+00,
          2.87907064e-01, 0., 0., 0., 0., 2.28516366e-02, 6.72769472e-02,
          6.14821985e-02, 7.76715517e-01, 5.45166671e-01, 4.78237383e-02,
          1.38503946e-02, 2.58741081e-02, 2.25901101e-02, 6.83883205e-02,
          6.35086596e-02, 9.49272588e-02, 2.55757958e-01, 2.76168138e-01,
          2.67755002e-01, 1.40260160e-01, 6.74092531e-01, 1.07474007e-01,
          0., 0., 0., 0., 0., 9.71628726e-02, 6.91844881e-01,
          3.23698902e+00, 3.08805913e-01, 1.20839231e-01, 0., 0., 0.,
          4.31388617e-05, 0., 2.43788409e+00, 1.73485529e+00,
          5.33794612e-02, 5.28282464e-01, 1.74426269e-02, 0., 0.,
          4.40156162e-02, 2.18064040e-01, 1.55740172e-01, 4.86907423e-01,
          8.03654075e-01, 2.99279660e-01, 5.03255129e-01, 3.38161081e-01,
          3.46193194e-01, 3.94320667e-01, 2.35186636e-01, 4.18382823e-01,
          1.08796962e-01, 2.88168430e-01, 0., 0., 1.06152558e+00,
          4.08508635e+00, 5.55531919e-01, 0., 0., 0., 0., 3.07701454e-02,
          4.55013439e-02, 1.14393428e-01, 1.21597731e+00, 8.57704341e-01,
          5.09587005e-02, 2.78080814e-02, 6.51611164e-02, 0.,
          2.51349229e-02, 0., 0., 7.18153939e-02, 9.22545195e-01,
          4.70628589e-02, 1.09927561e-02, 3.71393859e-02, 9.96596366e-02,
          3.64134684e-02, 3.99760045e-02, 1.67964578e-01, 2.08493307e-01,
          2.03181431e-01, 1.02598069e-03, 0., 2.77700345e-03,
          5.40328860e-01, 5.88368416e-01, 5.38347885e-02, 3.97932976e-02,
          9.77593064e-02, 1.71708800e-02, 0., 0., 0., 8.66117299e-01,
          1.05100706e-01, 0., 0., 0., 5.36444932e-02, 1.78722039e-01,
          6.83575571e-01, 3.97433519e-01, 4.83293086e-01, 1.65976230e-02,
          8.66084546e-03, 1.02906835e+00, 1.62273467e-01, 0., 0., 0., 0.,
          0., 8.76915269e-03, 0., 2.10260093e-01, 2.27971956e-01,
          6.88440725e-02, 7.51970410e-02, 2.83222534e-02, 1.45396553e-02,
          1.80039257e-02, 1.12904441e-02, 6.21428760e-03, 1.18520511e-02,
          2.81123742e-02, 7.24974182e-03, 0., 5.29745109e-02,
          1.51238978e+00, 1.93463057e-01, 5.14701962e-01, 0., 0., 0., 0.,
          0., 0., 2.34065819e+00, 2.76211119e+00, 3.68275285e-01,
          1.48952913e+00, 0., 0., 2.40990087e-01, 3.26923788e-01,
          6.51883304e-01, 0., 0., 2.44509459e+00, 5.20385146e-01, 0., 0.,
          6.73523694e-02, 2.89471056e-02, 1.91930473e-01, 2.18688548e-01,
          3.26416707e+00, 2.44915813e-01, 0., 0., 8.66869450e-01,
          8.13500464e-01, 1.26495827e-02, 0., 0., 5.83875799e+00,
          1.05063939e+00, 8.99740383e-02, 8.27124566e-02, 2.53363490e+00,
          1.33181810e+00, 0., 0., 0., 1.75987077e+00, 8.22706699e-01,
          1.52054340e-01, 6.12686038e-01, 8.24884117e-01, 1.95137584e+00,
          3.18366773e-02, 0., 0., 1.13280773e-01, 9.86776967e-03,
          1.89479932e-01, 5.54632723e-01, 1.07743728e+00, 4.66238976e-01,
          1.06070206e-01, 0., 0., 0., 0., 0., 0., 0., 7.44357407e-01,
          3.14680517e-01, 4.92975265e-02, 0., 0., 3.36831696e-02,
          2.39257254e-02, 0., 6.92084432e-03, 8.73407628e-03,
          6.00567520e-01, 7.44386911e-02, 2.46565938e-01, 1.87485233e-01,
          4.69306037e-02, 4.08358932e-01, 4.26932901e-01, 1.75078660e-02,
          0., 0., 0., 0., 0., 4.27300632e-02, 4.09530215e-02,
          9.34013128e-02, 8.73381644e-02, 6.07920028e-02, 7.35452678e-03,
          5.46773635e-02, 1.84935760e-02, 0., 3.21270227e-02,
          2.18369126e-01, 2.67584890e-01, 1.26102775e-01, 8.31705108e-02,
          1.90121047e-02, 1.43688634e-01, 2.84992218e-01, 5.08949161e-02,
          2.49058872e-01, 0., 0., 0., 0., 0., 2.25800976e-01,
          1.06823659e+00, 1.09812483e-01, 0., 6.24059916e-01,
          2.73331094e+00, 9.01698112e-01, 5.34155309e-01, 9.09341946e-02,
          0., 0., 0., 6.74585998e-03, 2.49960616e-01, 3.40927541e-01,
          1.72944486e+00, 7.39345729e-01, 3.96333784e-02, 0.,
          4.98859696e-02, 3.08697056e-02, 1.17737614e-01, 6.85606152e-02,
          1.82806760e-01, 2.76059777e-01, 1.70365646e-01, 2.07239948e-02,
          1.13251507e-01, 2.19446406e-01, 7.94405937e-01, 9.12665069e-01,
          8.82433951e-02, 1.26118317e-01, 3.64226043e-01, 1.84298962e-01,
          1.65652275e-01, 6.73433840e-02, 0., 2.19125319e+00,
          4.28358555e-01, 0., 0., 1.29860248e-02, 4.41536903e-01,
          9.35183540e-02, 1.80883467e-01, 3.17065835e-01, 2.26717234e+00,
          2.39807501e-01, 2.51898110e-01, 3.61743033e-01, 2.50891984e-01,
          1.87423043e-02, 4.08931915e-03, 1.87504701e-02, 3.91763896e-01,
          7.90634215e-01, 6.08880632e-02, 1.20753512e-01, 1.93522319e-01,
          5.84136173e-02, 5.00795059e-02, 2.82429177e-02, 2.06807051e-02,
          4.01612446e-02, 1.91472284e-02, 1.79223940e-02, 1.16051823e-01,
          1.36626065e-02, 7.88268354e-03, 0., 6.32202718e-04,
          3.49513367e-02, 4.28038985e-02, 1.20094404e-01, 2.61905119e-02,
          8.79272148e-02, 7.91247711e-02, 6.33803457e-02, 3.68086509e-02,
          3.25550674e-03, 4.81563807e-03, 6.97675999e-03, 4.30006050e-02,
          1.88316160e-03, 9.89715457e-02, 4.60599810e-01, 1.17287979e-01,
          1.17647648e-02, 0., 0., 0., 0., 1.31707191e-01, 6.54541612e-01,
          9.48907733e-02, 0., 0., 0., 2.97529697e-02, 1.67410418e-01,
          2.12880731e-01, 1.92806423e-01, 8.73554796e-02, 2.19824523e-01,
          2.60664243e-02, 1.78005546e-02, 7.77662992e-02, 3.83721590e-01,
          2.40152314e-01, 2.93561518e-01, 2.44801924e-01, 1.82058737e-02,
          2.28285864e-02, 1.66639590e+00, 3.04033488e-01, 2.99139738e-01,
          2.32421085e-02, 0., 0., 5.58514833e-01, 8.71547222e-01,
          2.46972829e-01, 2.56894803e+00, 1.27672100e+00, 8.10720474e-02,
          0., 4.79499586e-02, 6.29135609e-01, 3.87756437e-01,
          2.52146907e-02, 1.79090127e-01, 3.35371017e+00, 1.20456147e+00,
          0., 0., 1.22500192e-02, 9.34072793e-01, 9.62407216e-02,
          2.08773445e-02, 1.85028195e-01, 7.24472523e-01, 1.80507946e+00,
          7.76557252e-02, 5.69748208e-02, 3.05978134e-02, 2.72265486e-02,
          0., 0., 0., 0., 1.15421724e+00, 1.91266134e-01, 5.21787629e-03,
          1.47405658e-02, 4.09316784e-03, 0., 3.43352333e-02,
          3.82767111e-01, 2.99149062e-02, 1.35798529e-01, 1.36000320e-01,
          1.40754536e-01, 2.75077373e-02, 0., 1.42686054e-01,
          2.70360112e-02, 5.96567877e-02, 1.43812001e-02, 6.69918209e-03,
          0., 2.32893247e-02, 1.31440004e-02, 1.64043996e-02,
          2.42743269e-03, 1.15252621e-02, 5.00170030e-02, 1.53254569e-02,
          2.78776232e-02, 5.76817878e-02, 2.61541978e-02, 4.09311056e-03,
          0., 1.98296700e-02, 2.01414954e-02, 7.42474198e-03,
          8.95705633e-03, 1.69709306e-02, 3.94603536e-02, 9.55334455e-02,
          3.69674675e-02, 2.26438232e-02, 0., 1.04242831e-01,
          7.81445861e-01, 1.65678114e-02, 1.31889358e-02, 0., 0., 0., 0.,
          0., 3.03894673e-02, 8.99081767e-01, 0., 0., 4.96285111e-02,
          3.17275286e-01, 1.63581856e-02, 0., 3.17097872e-01,
          1.93365216e-01, 3.41143832e-02, 1.35663676e-03, 2.02903152e-02,
          2.47888565e-02, 1.58325061e-01, 1.64254457e-01, 1.02781862e-01,
          5.48219159e-02, 4.72642303e-01, 1.50543463e+00, 1.44436091e-01,
          3.03098112e-02, 2.19870303e-02, 0., 8.52169760e-04,
          1.70378387e-02, 4.97882128e-01, 2.53770685e+00, 2.31998491e+00,
          4.48146045e-01, 6.42689764e-02, 0., 0., 0., 1.15811810e-01,
          1.09923303e+00, 8.77955183e-03, 1.28861740e-02, 5.79354689e-02,
          1.77509040e-01, 3.17155272e-02, 2.78472900e-04, 1.09969452e-01,
          1.85316014e+00, 1.48288774e+00, 2.07391873e-01, 1.09132983e-01,
          3.13555375e-02, 2.12439708e-02, 4.77642529e-02, 1.72567628e-02,
          5.03499806e-02, 6.12427771e-01, 5.72589278e-01, 1.65453851e-02,
          7.94788226e-02, 0., 0., 0., 0., 3.74240987e-02, 1.15097308e+00,
          1.84938580e-01, 1.77964896e-01, 7.33256191e-02, 0., 0., 0., 0.,
          6.69833049e-02, 4.85743225e-01, 2.05455050e-01, 9.18810517e-02,
          6.31032810e-02, 2.40678824e-02, 1.03802364e-02, 0.,
          3.50317336e-03, 0., 0., 2.51954943e-02, 3.31645133e-03,
          1.10054687e-02, 5.21018635e-03, 0., 1.92239676e-02,
          2.79252119e-02, 1.91482961e-01, 1.09345011e-01, 0., 0.,
          1.82901099e-02, 4.48125303e-02, 6.98633566e-02, 1.01437181e-01,
          9.62509587e-02, 1.82985440e-02, 1.47455873e-03, 6.89681619e-02,
          7.67927051e-01, 2.35180676e-01, 2.58335914e-03, 0., 0., 0.,
          2.84315040e-03, 0., 1.99947157e-03, 7.67501742e-02,
          5.52717745e-01, 7.09113851e-02, 7.85580650e-03, 8.98607969e-02,
          2.48076975e-01, 0., 0., 4.74992953e-02, 1.39469774e-02,
          7.57529661e-02, 1.12118430e-01, 3.49843055e-01, 4.26599503e-01,
          8.15014780e-01, 4.69941795e-02, 0., 6.18798733e-01,
          4.75979373e-02, 8.22961181e-02, 4.68623102e-01, 1.00137837e-01,
          1.25091493e-01, 1.55043349e-01, 1.81513798e+00, 1.74662367e-01,
          8.18809047e-02, 5.16057340e-03, 2.16929484e-02, 4.50892305e+00,
          1.35060000e+00, 5.96226566e-02, 2.27111802e-02, 1.00138932e-01,
          3.12073771e-02, 0., 0., 0., 3.72380567e+00, 2.74933887e+00,
          8.63575488e-02, 0., 0., 0., 0., 0., 6.10228404e-02,
          1.75888014e+00, 2.11054373e+00, 0., 0., 0., 0., 0., 0., 0.,
          2.25174695e-01, 1.87493229e+00, 2.05862820e-01, 0., 0., 0.,
          6.73204288e-03, 2.64863297e-02, 2.57532567e-01, 3.35049540e-01,
          6.72024488e-01, 1.42365515e-01, 7.03394264e-02, 1.96817257e-02,
          8.71512853e-03, 1.53425351e-01, 2.49568924e-01, 2.42134511e-01,
          1.04060084e-01, 1.01412013e-01, 0., 0., 0., 0., 0., 0., 0., 0.,
          4.24949192e-02, 6.29428849e-02, 2.33304799e-01, 4.20898795e-01,
          6.43140674e-02, 6.66607469e-02, 2.34040350e-01, 5.04569933e-02,
          0., 1.89038701e-02, 1.15140004e-03, 4.65022214e-02,
          1.31939054e-01, 9.19070691e-02, 2.36837670e-01, 9.04364228e-01,
          1.71246022e-01, 0., 0., 1.87614392e-02, 0., 1.95432659e-02,
          5.82157597e-02, 2.23829687e-01, 3.07198726e-02, 1.38699645e-02,
          5.54601941e-03, 8.07806849e-02, 4.08459187e-01, 1.15800776e-01,
          2.81614929e-01, 2.54922777e-01, 1.07470103e-01, 2.91399695e-02,
          6.37360811e-02, 2.93834172e-02, 1.67719692e-01, 1.35565385e-01,
          9.08443257e-02, 3.33461054e-02, 4.45151143e-02, 4.58480231e-02,
          0., 0., 4.78914147e-03, 2.06389487e-01, 1.06990384e-02,
          2.06780124e+00, 1.42146289e-01, 3.33025753e-02, 2.52333105e-01,
          7.09680438e-01, 3.13381195e-01, 1.67894717e-02, 1.13763511e-02,
          8.30253437e-02, 2.10126027e-01, 1.67031601e-01, 0.,
          2.41780043e+00, 3.36292624e+00, 9.92695689e-01, 6.62011504e-02,
          0., 0., 0., 4.92935162e-03, 0., 3.10613346e+00, 1.28266945e-01,
          5.54259360e-01, 0., 0., 0., 0., 2.67591141e-02, 1.00309861e+00,
          7.56249905e-01, 0., 1.12880193e-01, 2.02339068e-02, 0.,
          4.45138142e-02, 4.33378518e-02, 1.72796667e-01, 1.17310488e+00,
          6.10098243e-01, 4.56893563e-01, 2.73016423e-01, 8.76889378e-03,
          0., 0., 0., 7.20424531e-03, 7.66232535e-02, 1.90800463e-03,
          1.88394919e-01, 1.52753398e-01, 6.16487935e-02, 2.12187152e-02,
          0., 0., 2.46249163e-03, 0., 3.90278287e-02, 1.99497081e-02,
          6.70664571e-03, 6.32202718e-04, 2.10415814e-02, 6.37748763e-02,
          5.77776395e-02, 5.50873503e-02, 3.94644700e-02, 6.62745386e-02,
          5.27145624e-01, 5.59386685e-02, 0., 0., 0., 0., 7.68806115e-02,
          1.66519240e-01, 6.23728260e-02, 5.42227745e-01, 4.02980179e-01,
          0., 0., 0., 1.82893630e-02, 7.90725201e-02, 1.25067204e-01,
          6.63725287e-02, 7.43446723e-02, 1.66068956e-01, 1.44897252e-01,
          3.94696556e-03, 5.27939126e-02, 9.10422206e-01, 4.22154695e-01,
          6.12100586e-02, 4.45073433e-02, 6.60961866e-02, 0.,
          7.12199360e-02, 7.60109574e-02, 9.21845958e-02, 9.10260901e-02,
          1.46632776e-01, 1.42885596e-01, 0., 0., 3.29817161e-02,
          4.37236987e-02, 2.40356579e-01, 2.69916564e-01, 5.87776840e-01,
          3.98811186e-03, 1.47853456e-02, 4.66850121e-03, 4.18033898e-01,
          1.17052352e+00, 2.93506384e-01, 5.50434217e-02, 5.75726628e-02,
          3.24847698e-02, 7.16541195e-03, 1.28596183e-02, 0., 0.,
          1.44612849e+00, 3.12275553e+00, 1.00215161e+00, 0., 0., 0., 0.,
          0., 0., 2.39468038e-01, 2.94466496e+00, 1.16766107e+00,
          5.16612604e-02, 0., 0., 0., 2.41711438e-02, 6.37808815e-03,
          6.15267716e-02, 3.52172852e-01, 4.86993223e-01, 1.54039502e-01,
          3.63656096e-02, 1.58131514e-02, 6.84219152e-02, 3.38706404e-01,
          6.03676075e-03, 0., 2.93931849e-02, 6.97236240e-01,
          4.23811615e-01, 5.05166613e-02, 2.51632277e-02, 8.27566460e-02,
          1.71040222e-01, 9.99135673e-02, 6.14775233e-02, 4.66920793e-01,
          1.24375153e+00, 3.43072712e-01, 2.54646223e-02, 7.83086941e-02,
          2.73604617e-02, 5.79509288e-02, 2.03478485e-02, 6.45561814e-02,
          2.07698986e-01, 8.23503077e-01, 4.93805390e-03, 0., 0.,
          3.35190073e-02, 4.43175584e-02, 2.55438775e-01, 3.73944819e-01,
          2.25686152e-02, 1.89517643e-02, 2.79003102e-03, 0., 0.,
          1.41001409e-02, 6.77140504e-02, 2.03147650e-01, 6.55963898e-01,
          2.69240141e-01, 7.29709566e-02, 0., 0., 0., 9.50682163e-02,
          1.25820920e-01, 0., 1.06513023e-01, 5.33990711e-02,
          5.07224910e-02, 1.57918055e-02, 1.03000665e+00, 3.09757203e-01,
          2.01048166e-01, 1.50869370e-01, 2.36970335e-02, 6.50676489e-02,
          1.33034214e-01, 3.84244800e-01, 2.00918406e-01, 7.27913082e-02,
          2.41236389e-01, 2.28160158e-01, 1.76004563e-02, 7.37955933e-03,
          1.17255747e-03, 2.98865070e-03, 2.07529217e-02, 1.50789144e-02,
          2.83565894e-02, 2.35071462e-02, 1.57722346e-02, 2.30025724e-02,
          7.91518465e-02, 8.51754993e-02, 9.07461643e-02, 5.84724136e-02,
          5.59703074e-03, 1.60364993e-02, 5.72570488e-02, 2.03196402e-03,
          6.20109290e-02, 4.81230393e-02, 7.07195178e-02, 1.22181468e-01,
          1.35315645e+00, 1.64960176e-01, 2.73718178e-01, 6.67526647e-02,
          4.26758304e-02, 8.09985846e-02, 3.47063613e+00, 2.25148726e+00,
          1.65720594e+00, 0., 0., 0., 0., 0., 2.34488457e-01,
          1.28279239e-01, 2.57027775e-01, 9.84583646e-02, 5.54078758e-01,
          1.29814729e-01, 3.42722476e-01, 4.88356799e-01, 7.14558661e-01,
          0., 1.42177194e-01, 4.35842872e-02, 7.36991242e-02,
          3.30329597e-01, 1.92898202e+00, 1.79047859e+00, 4.36498851e-01,
          8.16244483e-02, 0., 0., 1.30407870e-01, 1.11802089e+00,
          2.87207484e+00, 0., 0., 0., 0., 0., 4.11123298e-02,
          2.47040677e+00, 1.19579160e+00, 9.65553582e-01, 0., 0., 0., 0.,
          3.34428065e-02, 1.40139222e-01, 6.83062613e-01, 1.40401065e-01,
          0., 5.90857640e-02, 1.22117400e-02, 1.55348610e-02,
          3.77110466e-02, 0., 1.74961984e-02, 5.38730145e-01,
          1.91551685e-01, 1.01549122e-02, 4.48977128e-02, 5.28079942e-02,
          0., 9.60304309e-03, 0., 9.85397957e-03, 1.08937748e-01,
          2.88303271e-02, 1.27818987e-01, 1.89755648e-01, 1.36604738e+00,
          0., 0., 1.29925050e-02, 2.51806229e-01, 4.21802938e-01,
          2.36263294e-02, 5.72038889e-02, 7.60538727e-02, 1.12102993e-01,
          1.08357675e-01, 3.34277377e-02 ]
      - [ 0., 0., 2.30186023e-02, 1.43487677e-01, 8.66343454e-02,
          5.72154820e-02, 0., 0., 0., 0., 0., 4.55773212e-02,
          5.99018298e-02, 3.88652273e-02, 2.08589420e-01, 5.01857474e-02,
          0., 0., 1.64082313e+00, 6.93970442e-01, 6.52554929e-02,
          4.43051010e-03, 3.59285101e-02, 6.42874930e-03, 1.93264969e-02,
          0., 4.96407691e-03, 6.77774429e-01, 6.50199223e-03,
          3.10509801e-02, 0., 6.75598020e-03, 9.64171719e-03, 0.,
          3.02533582e-02, 3.40794849e+00, 2.39859559e-02, 7.60918530e-03,
          2.69071162e-02, 9.42682698e-02, 2.59544700e-01, 2.64895950e-02,
          2.31951661e-02, 2.08327323e-02, 1.55247808e+00, 0.,
          1.73333362e-02, 4.18754742e-02, 3.67518067e-01, 3.36711593e-02,
          0., 1.34117901e-03, 1.38196480e-02, 6.48048595e-02,
          1.96471275e-03, 1.07615879e-02, 3.86397988e-02, 8.72479454e-02,
          6.14885762e-02, 1.07161654e-02, 4.47276719e-02, 2.79002334e-03,
          0., 4.47064638e-04, 0., 2.61633079e-02, 8.43081251e-02,
          3.17048766e-02, 3.14197247e-03, 0., 0., 0., 3.24151386e-03, 0.,
          5.41404961e-03, 2.30838340e-02, 4.11311053e-02, 6.31460473e-02,
          2.74022073e-02, 1.86612632e-03, 0., 8.94129276e-04, 0., 0.,
          3.25546484e-03, 1.62000060e-02, 2.79863235e-02, 1.55208111e-01,
          4.00455408e-02, 0., 0., 0., 0., 0., 0., 3.98174115e-02,
          4.72126663e-01, 0., 0., 6.43530488e-03, 1.56376907e-03,
          2.02353299e-03, 0., 4.88235801e-03, 0., 3.89840573e-01,
          1.20258272e-01, 0., 0., 0., 1.03822378e-02, 4.28219028e-02,
          3.38991970e-01, 9.27232429e-02, 0., 0., 0., 6.58279300e-01,
          1.60737857e-01, 2.16876492e-02, 1.14354335e-01, 1.48696050e-01,
          1.26910865e-01, 8.57315212e-03, 3.52863944e-03, 2.87714154e-01,
          1.70393705e-01, 1.13877392e+00, 2.45366979e+00, 2.02598190e+00,
          0., 0., 0., 0., 3.02183747e-01, 5.17036974e-01, 5.02900220e-02,
          0., 2.08793092e+00, 1.36107433e+00, 8.49264860e-03, 0., 0.,
          2.07599735e+00, 1.72944795e-02, 0., 7.53703481e-03,
          3.66497427e-01, 6.25212714e-02, 0., 5.99464914e-03,
          1.03669897e-01, 5.75546408e+00, 0., 9.31972172e-03, 0.,
          1.97891202e-02, 0., 0., 0., 0., 6.06375599e+00, 2.55683288e-02,
          0., 7.05865119e-03, 1.24695912e-01, 1.56912103e-01,
          1.31665608e-02, 9.10010654e-03, 1.88880533e-01, 2.24234271e+00,
          1.70180291e-01, 3.44320685e-02, 2.57797167e-02, 2.73170799e-01,
          7.16459379e-02, 0., 0., 6.32234383e-04, 2.28158355e-01,
          1.81360170e-02, 1.56161617e-02, 3.57179530e-02, 8.33936334e-02,
          4.07286100e-02, 1.61930732e-02, 2.35430128e-03, 3.52822011e-03,
          1.37465317e-02, 1.49781350e-02, 2.79003195e-03, 0.,
          1.20398104e-02, 6.30166382e-03, 1.28929503e-02, 1.10863678e-01,
          7.42878839e-02, 2.16701217e-02, 0., 0., 0., 0., 0.,
          9.90508348e-02, 4.15653318e-01, 1.32068217e-01, 0.,
          2.98430771e-03, 0., 0., 0., 9.63380337e-02, 3.24539751e-01,
          2.45381907e-01, 0., 0., 0., 1.56511609e-02, 3.38169277e-01,
          6.06357157e-02, 1.93116933e-01, 1.37553677e-01, 0., 0., 0.,
          1.14479220e+00, 1.85961354e+00, 2.92808318e+00, 7.66316280e-02,
          0., 0., 0., 0., 3.66339296e-01, 2.92342342e-02, 3.01248822e-02,
          1.43230390e-02, 1.81997493e-01, 0., 0., 0., 1.24107942e-01,
          5.50240278e+00, 0., 7.05660414e-03, 0., 2.58933306e+00,
          7.08747879e-02, 0., 0., 3.85137685e-02, 3.08552241e+00,
          1.51504785e-01, 1.25480965e-01, 3.39354068e-01, 4.86927795e+00,
          0., 0., 0., 0., 1.37524500e-01, 0., 0., 0., 1.94955611e+00,
          2.65827864e-01, 3.68134212e-03, 1.57630462e-02, 6.22602105e-02,
          1.16900396e+00, 0., 0., 0., 0., 1.22043326e-01, 3.46058719e-02,
          2.52213180e-02, 2.24824071e-01, 4.32908392e+00, 2.30473205e-02,
          0., 0., 0., 0., 0., 0., 0., 5.12629795e+00, 0., 0., 0.,
          3.58682647e-02, 7.22006187e-02, 1.47633236e-02, 2.43336428e-02,
          2.43531719e-01, 2.81842446e+00, 0., 3.14477924e-03, 0.,
          1.81723572e-02, 4.28946257e-01, 7.93739408e-02, 2.61645485e-02,
          4.02842127e-02, 6.56582892e-01, 5.16779840e-01, 1.02976881e-01,
          0., 1.22356061e-02, 4.07537296e-02, 2.70453423e-01,
          3.52923453e-01, 7.21815526e-02, 5.33066615e-02, 4.65335417e+00,
          0., 0., 0., 3.93185485e-03, 8.82913023e-02, 2.43553333e-02,
          1.04126018e-02, 1.31581396e-01, 1.30826449e+00, 2.08021820e-01,
          5.03629819e-02, 7.55409375e-02, 4.73217182e-02, 7.51073286e-02,
          4.68084998e-02, 3.68400253e-02, 9.69915450e-01, 0.,
          6.90881722e-03, 9.16563272e-01, 2.97257781e+00, 9.23301578e-01,
          0., 0., 0., 1.41380215e+00, 0., 0., 0., 3.88589573e+00,
          3.09892440e+00, 2.32183319e-02, 3.19409072e-02, 1.15491197e-01,
          1.58006959e-02, 8.54392070e-03, 0., 1.32317161e-02,
          2.69055939e+00, 1.73210818e-02, 0., 3.02743912e-03,
          2.57874448e-02, 1.84035444e+00, 5.88164985e-01, 9.70958322e-02,
          1.36741713e-01, 7.21462741e-02, 0., 0., 0., 4.35628854e-02,
          3.06638718e+00, 3.62808585e-01, 2.41468713e-01, 2.56752431e-01,
          9.17946398e-01, 2.38731876e-03, 0., 0., 5.43903261e-02,
          1.13978720e+00, 2.04258156e-03, 1.34310976e-01, 5.56331396e-01,
          2.50564873e-01, 1.70246139e-02, 5.22129284e-03, 4.99871839e-03,
          1.04963845e-02, 0., 3.69017385e-02, 0., 7.18975533e-03,
          2.27886960e-02, 5.75746410e-02, 9.84300300e-03, 9.36472730e-04,
          7.34680966e-02, 7.43070662e-01, 3.08942841e-03, 0., 0., 0.,
          7.53242429e-03, 3.27348779e-03, 2.92660203e-03, 5.02211638e-02,
          3.36606717e+00, 0., 0., 0., 0., 0., 0., 0., 9.96072412e-01,
          4.65593719e+00, 4.34848011e-01, 1.70701587e+00, 8.36402714e-01,
          2.94117153e-01, 1.85237631e-01, 0., 6.52174139e-03,
          2.31817544e-01, 1.33556342e+00, 1.13297534e+00, 3.51574659e-01,
          2.85593152e-01, 4.06453162e-01, 2.29939055e+00, 6.78738415e-01,
          4.27209288e-02, 1.15207411e-01, 2.96414196e-01, 1.31014132e+00,
          1.71218443e+00, 2.01972151e+00, 4.81788814e-01, 1.45161226e-01,
          0., 0., 0., 8.12401295e-01, 8.47920254e-02, 4.21567867e-03, 0.,
          8.05706158e-03, 4.96408641e-02, 0., 0., 0., 6.07487392e+00,
          1.91672474e-01, 4.09575626e-02, 0., 2.36414984e-01, 0., 0., 0.,
          0., 6.61524582e+00, 9.47972953e-01, 2.97039479e-01,
          4.98979837e-01, 1.71417773e+00, 0., 0., 0., 0., 2.13282347e+00,
          5.58798127e-02, 4.12844159e-02, 2.67776191e-01, 1.84165001e+00,
          4.86175537e-01, 1.71890091e-02, 0., 3.55944112e-02,
          1.44989744e-01, 1.01514652e-01, 0., 2.12872177e-01,
          4.97060955e-01, 2.59660989e-01, 6.78849453e-03, 1.73089113e-02,
          8.99333209e-02, 4.38275218e-01, 7.29778856e-02, 2.93449275e-02,
          1.71425641e-02, 0., 1.13925375e-02, 1.26457401e-03,
          1.12510920e-02, 1.21094003e-01, 7.03788251e-02, 0., 0.,
          4.01136652e-02, 6.54507875e-02, 3.64480428e-02, 8.51612259e-03,
          8.32153484e-03, 3.16898129e-03, 1.63863960e-03, 1.71550792e-02,
          5.54560013e-02, 9.99008045e-02, 5.27537167e-02, 1.72942877e-03,
          0., 0., 0., 3.62507589e-02, 1.49600476e-01, 4.17753346e-02, 0.,
          0., 0., 0., 0., 3.91498357e-01, 8.95737052e-01, 0., 0., 0., 0.,
          1.24183118e-01, 1.43463179e-01, 3.67980897e-01, 4.75586557e+00,
          9.34487879e-02, 2.53297593e-02, 2.41612326e-02, 3.28433178e-02,
          1.16748780e-01, 1.67907727e+00, 1.07297987e-01, 2.64790095e-02,
          2.48017013e-01, 2.84618977e-02, 2.38078535e-02, 0.,
          2.14369178e-01, 4.85455799e+00, 4.44331616e-01, 0.,
          6.09820988e-03, 2.39561796e-02, 1.63770374e-02, 0.,
          1.55996531e-01, 3.76237065e-01, 2.84257436e+00, 2.06279230e+00,
          0., 0., 0., 0., 0., 0., 0., 9.79992032e-01, 1.69012010e+00,
          9.11544561e-02, 1.43828198e-01, 3.88145372e-02, 0.,
          2.08302960e-01, 4.75179106e-02, 1.12987846e-01, 1.25548971e+00,
          0., 0., 0., 1.37696937e-02, 8.46019328e-01, 4.21842366e-01,
          6.17813831e-03, 0., 6.16252720e-02, 7.87253529e-02,
          2.08270296e-01, 0., 4.35715467e-02, 1.71496427e+00,
          2.65570402e-01, 4.05553073e-01, 1.73209757e-01, 1.03796609e-01,
          7.40956981e-03, 8.81518051e-02, 0., 4.08279262e-02,
          1.19593471e-01, 3.56451944e-02, 5.37676960e-02, 0.,
          3.22378762e-02, 1.07176386e-01, 1.08449645e-01, 7.96678141e-02,
          1.78517088e-01, 3.19645628e-02, 0., 0., 0., 2.02784762e-02,
          2.59930491e-02, 9.38670263e-02, 6.11766726e-02, 5.98732829e-02,
          0., 0., 1.06563456e-01, 5.79422712e-01, 8.61944556e-02,
          3.25798616e-02, 0., 0., 2.41357484e-03, 0., 1.86895713e-01,
          2.24439606e-01, 1.25601053e-01, 0., 0., 0., 0., 2.27933731e-02,
          1.87393099e-01, 2.15941705e-02, 9.63830575e-03, 0., 0., 0., 0.,
          0., 5.00040054e+00, 2.58110762e-01, 5.82152270e-02,
          6.92377388e-02, 5.17769605e-02, 7.20419269e-03, 2.30196118e-03,
          0., 2.27991298e-01, 1.64660764e+00, 1.97042283e-02,
          3.07035595e-02, 1.23040950e+00, 1.43587196e+00, 0.,
          1.99980326e-02, 9.41852108e-03, 1.13214161e-02, 8.26534852e-02,
          1.18270600e-02, 1.93317974e+00, 1.01021850e+00, 1.06898046e+00,
          1.08524454e+00, 0., 0., 0., 0., 8.65894973e-01, 6.30818546e-01,
          7.35446811e-02, 7.13772401e-02, 1.86990976e-01, 3.00062522e-02,
          0., 0., 0., 2.09889746e+00, 1.30467594e-01, 4.97012474e-02,
          6.63735196e-02, 1.29328036e+00, 4.62276191e-02, 0., 0., 0.,
          9.83181834e-01, 2.18394138e-02, 3.37847285e-02, 2.68967748e-01,
          4.14500922e-01, 9.84256327e-01, 1.01625748e-01, 0.,
          2.62321997e-03, 0., 1.26583695e-01, 2.94600546e-01,
          2.88920283e-01, 4.59329560e-02, 1.68995727e-02, 2.94648204e-02,
          0., 7.34129874e-03, 1.82965025e-01, 1.55772537e-01,
          2.58341222e-03, 0., 1.93199664e-02, 7.95902014e-02,
          1.77364126e-02, 1.14469510e-02, 1.00187995e-02, 2.61529833e-01,
          6.17594831e-02, 1.65822566e-03, 0., 0., 4.80359606e-03,
          4.84756660e-03, 4.07865010e-02, 6.42783269e-02, 1.33297488e-01,
          5.14088497e-02, 6.23718277e-02, 3.70780379e-01, 4.22622114e-02,
          2.90426388e-02, 1.23103615e-02, 0., 4.14005062e-03,
          5.96592482e-03, 0., 1.91833787e-02, 5.51759303e-01,
          4.54330683e-01, 0., 0., 0., 0., 0., 1.35881146e-02,
          8.97012800e-02, 2.51069725e-01, 1.37884635e-03, 1.68021361e-03,
          0., 1.81632054e+00, 1.73384178e+00, 0., 2.25951597e-02,
          2.31403299e-02, 1.05792880e-01, 2.91580483e-02, 9.16417241e-02,
          2.70308256e-02, 1.76965487e+00, 1.93095350e+00, 1.51829282e-02,
          3.11458185e-02, 8.12216662e-03, 3.30683067e-02, 5.04601836e-01,
          2.65971087e-02, 4.23458265e-03, 5.93850538e-02, 1.86198100e-01,
          2.94469763e-02, 0., 1.56483017e-02, 7.00762644e-02,
          5.06026030e+00, 6.97956622e-01, 8.80668033e-03, 0.,
          1.35822557e-02, 0., 0., 0., 0., 4.51426315e+00, 2.08990645e+00,
          0., 3.31120961e-03, 0., 4.42417338e-02, 0., 0., 0.,
          1.68329906e+00, 5.17442107e-01, 5.84959537e-02, 7.76634291e-02,
          3.31584901e-01, 5.12104750e-01, 0., 0., 3.05825800e-01,
          3.65975022e-01, 1.22654915e-01, 1.28205359e-01, 4.21494007e-01,
          3.25564414e-01, 1.81896072e-02, 3.49543132e-02, 1.02439329e-01,
          8.44327629e-01, 1.17430747e+00, 8.88275355e-02, 8.35144892e-03,
          1.64333347e-03, 0., 3.14463638e-02, 0., 0., 0., 0.,
          3.16347815e-02, 8.13948452e-01, 1.28699124e-01, 3.08441725e-02,
          9.28363055e-02, 9.23609734e-02, 0., 0., 0., 3.34175169e-01,
          2.72653550e-01, 2.24179514e-02, 7.67866056e-03, 1.21015236e-02,
          1.20583050e-01, 2.18751468e-02, 5.54114580e-03, 1.23300247e-01,
          2.49229684e-01, 0., 0., 0., 1.13003440e-02, 1.32172070e-02,
          3.14986072e-02, 1.09322488e+00, 3.06114078e-01, 0., 0., 0., 0.,
          0., 0., 5.18596265e-03, 3.97237837e-01, 3.37441042e-02, 0.,
          1.85005169e-03, 4.64013129e-01, 8.45195055e-01, 0.,
          1.89254880e-02, 2.96857953e-02, 0., 0., 4.47064638e-04, 0.,
          2.70678926e+00, 3.12391019e+00, 3.38865295e-02, 1.54941306e-02,
          0., 0., 0., 0., 0., 1.54054202e-02, 1.75573543e-01,
          8.07078704e-02, 3.43597047e-02, 1.03983190e-02, 0.,
          7.44264899e-03, 2.77850349e-02, 6.91469535e-02, 3.67426835e-02,
